33 100
</s> -0.0084806 0.006911 -0.0072881 -0.0015372 0.0050731 0.0016905 0.0036992 -0.0027301 0.010594 0.0070334 -0.0052338 0.0050077 0.010043 0.0085753 -0.0041221 -0.0013777 0.00037996 0.0060422 0.00069432 -0.01042 -0.0032237 0.0065655 0.0049479 -0.0060227 0.0064066 -0.0064465 0.0021114 -0.0035213 -0.00016449 0.0096367 -0.0071024 -0.003548 -0.0096299 -0.005823 -0.010985 0.00023794 0.0037279 -0.010409 0.000414 -0.0086867 0.0094236 0.0094235 0.0027188 0.0022848 -0.00057326 0.0017395 -0.002953 -0.0012944 -0.006452 0.0032222 -0.010351 0.007397 -0.0087102 0.0029469 -0.0046711 -0.0067159 0.00054974 0.0019198 0.0038411 0.0011624 -0.0094228 0.0066937 0.007842 0.0028294 -0.0038104 -0.0014143 -0.008624 0.0059352 0.0057456 0.0048955 -0.0090731 -5.9459e-06 -0.0024379 0.00031371 0.00010682 -0.0051253 0.010852 0.00946 -0.0015245 -0.0064284 -0.0092183 0.0078833 0.0082385 -0.0075765 -0.003588 -0.0086629 0.00051834 -0.0011253 -0.0058223 -0.0052713 0.0086504 0.0051204 0.0064623 -0.012034 0.0017434 -0.0082101 0.0058299 0.0097453 -0.0068959 -0.0017108 
the 0.0022265 -0.0093646 -0.0043052 0.0072833 -0.0096579 0.0053893 -0.014953 -0.0072444 0.00077001 -0.015476 -0.0082526 0.002535 -0.0044078 0.0080709 0.0052945 0.0087282 0.0032678 -0.0010331 0.006373 -0.0032709 -0.0014069 -0.0035126 -0.0022634 0.0031376 -0.0046423 0.0071414 0.0063364 -0.0059 0.0014993 -0.01686 -0.010757 -0.0012937 0.00015922 0.013455 -0.0079849 0.0053538 -0.010017 5.8531e-05 0.01041 0.0011109 -0.0029895 0.0013381 -0.009261 0.0074418 0.019868 0.0020819 0.0036899 0.014877 -0.00010295 -0.0031243 -0.011416 -0.00062662 0.0093254 -0.0015276 -0.012881 -0.0050067 -0.006652 -0.0010214 0.0040584 -0.01279 -0.012179 -1.267e-05 -0.0037799 -0.015891 0.0030363 -0.0045794 -0.0080716 0.001344 -0.0094609 0.00024066 0.0024146 -0.0021277 0.0019647 -0.0076108 -0.0017509 -0.0042429 -0.0018967 -0.00026498 0.007847 -0.015759 0.00017053 0.003529 -0.008083 0.0028945 0.0029089 -0.0022484 -0.0031825 -0.014795 -0.0034549 -0.0034754 -0.0095615 -0.0020677 -0.006603 -0.012208 0.012849 0.00038535 0.00054565 0.0049872 -0.014912 -0.00081401 
to 0.0041457 -0.023902 -0.003593 0.011596 -0.006046 -0.0010621 -0.025463 -0.02171 0.011229 -0.02437 -0.032412 0.0079929 -0.0022243 0.01284 0.0031398 0.013122 0.0017255 -0.0057037 0.0065462 -0.012953 -0.0061743 -0.0060539 -0.0053922 0.0052287 0.00080402 0.0036998 0.012353 -0.011603 0.0057075 -0.010054 -0.012531 0.0039941 -0.0043213 0.014945 -0.015599 0.0057645 -0.0088094 -0.0039843 0.019226 -0.0037665 -0.0060222 0.0090965 -0.011113 0.0056003 0.033183 0.0074822 0.0079671 0.028156 0.011567 0.00090208 -0.02253 -0.0041202 0.012311 -0.012106 -0.020706 -0.010005 -0.0065343 -0.0019939 0.0054249 -0.018057 -0.021299 0.0048297 -0.00020821 -0.01879 -0.0016736 -0.0042383 -0.0080823 0.0062649 -0.016511 -0.0067123 0.0091879 0.00098677 0.0086658 -0.015884 -0.0029988 -0.0023782 0.0055457 0.0036216 -0.0014833 -0.026012 0.00094052 0.011747 -0.01512 0.0034586 0.011322 -0.0099014 -0.0088472 -0.020883 -0.0056967 -0.011346 -0.018971 -0.0017474 -0.010494 -0.021351 0.015187 -0.0015138 -0.001394 0.0076631 -0.022175 0.00087144 
``` -7.1763e-05 -0.00092485 -0.00026984 -0.0059158 0.00062087 0.00083267 -0.0011844 0.0033828 0.0011432 -0.0019756 -0.0013576 -0.00022441 0.0010016 0.002239 0.0024948 -0.0042469 8.5496e-05 -0.0016783 -0.0009205 0.005889 -0.00041425 0.0014013 0.0024295 0.00058924 -0.0017699 -0.0024194 0.0036235 0.001045 1.5739e-05 -0.0003419 0.0019862 0.0017404 0.0010791 0.0040063 0.00018142 0.0024 0.00040474 0.0022464 -0.0015038 0.00081417 -0.0022438 -0.002026 -0.00013512 -0.00055783 -8.6536e-05 -0.0012786 0.0024162 -0.0052674 -0.0020942 0.0014411 -0.0011013 0.0025394 -0.0016302 -0.0014679 0.0041227 -0.00033667 0.0025139 -0.0024201 -0.0014823 -0.001273 -0.0036775 0.001007 -0.00058743 -0.00090468 0.00036685 0.00063408 -0.00017562 0.0016421 -0.0017954 0.0029254 0.0010207 0.0015709 0.0011238 0.0037274 0.0023756 0.0034821 -0.0016975 0.0015795 -0.0021416 -0.0013837 0.0039879 0.002792 0.0013906 0.00030602 -0.0020417 0.0029139 0.0039249 0.0037664 -0.0031658 -0.0029683 -0.00085591 -0.0017855 0.0022915 0.0022075 0.00058956 -0.0014452 -0.0010411 0.001433 0.00038098 -0.00072641 
build -0.0034155 -0.0040947 0.0014585 0.0050568 0.0031506 -0.0065962 -0.0049718 -0.001278 0.0026919 -0.005014 -0.0072149 5.0068e-05 -0.0023644 0.00033495 0.0054465 0.0028555 0.0041977 0.0017949 0.0058724 -0.0016163 -0.0050073 0.00079765 0.00095934 -0.00057224 0.0024476 0.00076867 0.0064155 -0.0028384 0.0048492 -0.0021585 0.00077154 -0.0028157 0.001496 0.0040673 -0.0058567 0.0011888 -0.0013594 0.0019632 0.00138 0.0016244 -0.0025234 0.0025756 -0.00044183 0.0041127 0.006937 -0.0033113 -0.00020042 0.0088333 0.0021574 1.8232e-05 -0.005071 -0.0011861 0.0010784 -0.0010635 -0.004442 0.001387 0.00029636 0.00022405 -0.0050148 -0.0019493 -0.0049781 -0.0018317 -0.0018431 -0.0046783 -0.0018065 0.00069993 0.0046058 0.0032413 -0.007001 0.00085478 0.0016435 -0.0016694 -0.001739 0.00093264 0.0016899 0.0032446 0.0007093 0.0010025 -0.0015463 -0.0044391 -0.0024767 -0.0027294 -0.0083992 0.0013521 0.0054507 -0.0024255 0.00045768 -0.0026302 0.0021125 -0.0045939 -0.0027781 -0.0049827 -0.0022223 -0.0023034 0.0049045 0.0024234 -0.0031851 -0.0030528 -0.0041541 0.0023808 
and 0.021526 -0.0079366 -0.0030439 0.0058913 0.0023527 0.0060494 -0.0078432 -0.0099721 -0.0086388 -0.014848 -0.015485 0.012844 0.0055017 -0.0014954 -0.0031157 0.0042967 -0.0061976 -0.0060537 0.0063277 -0.010386 -0.0032313 -0.0069821 0.0033107 0.0011493 -0.0015855 0.0058608 0.005504 -0.001995 -0.00052058 -0.010063 -0.0099651 -0.0043214 0.00084915 0.0027838 0.00089523 -0.0010383 -0.0036787 0.0082982 0.0025186 0.0050127 -0.0011209 0.00019639 -0.0093095 0.0014133 0.022951 0.0025191 0.0036532 0.00064008 -0.00034056 0.0027406 -0.011452 0.0035197 0.0029188 0.0014505 -0.0034865 -1.4796e-05 -0.0024536 0.0038833 0.0025525 -0.018029 -0.011267 0.0026049 0.0011515 -0.0075762 0.001134 -0.010423 -0.0058997 0.0045173 -0.012125 -0.00033956 -0.00046197 -0.0031365 0.0084887 -0.010208 -0.00071307 0.0079262 -0.0015473 0.0022842 -0.00057822 -0.019237 0.00011933 0.011305 -0.0026448 0.0084541 0.011217 0.0025974 -0.016237 -0.01038 -0.011682 -0.0072373 -0.0080429 0.0036292 -0.003006 -0.015997 0.0039157 0.00062025 -0.0039281 -0.0061735 -0.013182 -0.014625 
- 0.0082135 0.002569 0.0074277 -0.0047132 -0.006522 0.0087682 0.0067341 0.0019497 0.0012519 -0.001966 -0.001791 0.0017466 -0.003755 -0.0027398 -0.0061074 0.00031545 0.00010293 -0.00098669 0.0013167 0.0015867 0.0095907 0.0078724 0.0070491 -0.0058971 -0.0036832 -0.0020422 -0.0053552 -0.0010753 0.0034992 0.0091222 0.00043029 -0.0064216 -0.0018116 -0.0029469 0.0027387 0.0056928 0.00031164 0.0073428 0.0023249 0.0020221 0.0029957 -0.0029427 0.0085121 0.0015111 0.00023183 -0.0086683 0.0032569 -0.0097915 -0.003711 -0.0030715 0.010642 0.0031892 -0.0067026 0.00096976 -0.00090668 0.0040221 -0.0024694 -0.001844 0.0038391 0.00053198 0.003103 -0.0007629 -0.0068986 -0.0034905 -0.0056476 -0.00077491 -0.0032972 0.0055485 -0.0027025 0.0067113 -0.0094479 -0.0012572 -0.0049086 0.0042218 0.0003586 0.0036328 0.0029223 -0.0090792 0.00033429 0.0023237 -0.00020654 0.0013651 0.0047485 -0.0049361 -0.0024669 -0.006266 0.010717 -0.00017647 -0.00075208 0.0058042 -0.0029508 -0.0036967 0.0054317 -0.0028966 -0.0093063 -0.0059437 -0.0058148 0.001745 0.0031047 -0.0077646 
you -0.0011692 -0.0093346 -0.0027843 0.005469 -0.0076411 0.003286 -0.0087519 -0.014255 0.00064728 -0.014574 -0.010149 0.0060371 -7.2369e-05 0.0081551 0.0040844 0.00099457 -0.0026198 -0.0025893 0.0025322 -0.0039628 -0.0083232 -0.0039739 1.3809e-05 0.0013868 0.00024393 0.0046806 0.00099562 0.0034681 0.0038698 -0.0064244 -0.0053233 -0.0020837 -0.0039743 0.011576 -0.0069618 0.0062125 -0.00077222 -0.0037 0.016029 -0.0022743 -0.0011045 0.0044795 -0.0067385 0.010538 0.02336 0.0030242 0.0034767 0.011093 -0.001627 0.005242 -0.016602 -0.0033659 0.0084461 -0.0096923 -0.01301 -0.0066309 -0.0049869 0.0027091 0.0060299 -0.014466 -0.015727 -0.0023485 0.0053499 -0.015214 0.00030817 -0.008135 -0.0059555 -0.0033243 -0.015579 0.0010339 0.0028942 -0.00185 2.0966e-05 -0.0020486 -0.0019312 -0.0055066 0.0026122 0.0050842 -0.0059536 -0.015064 -0.0038318 0.0085369 -0.0070984 0.0059737 -0.0011431 -0.0041512 0.0011214 -0.0095216 -0.0072564 -0.010819 -0.0098538 0.0018932 -0.015266 -0.0098032 -0.0033571 -0.0050848 0.00048824 0.0034512 -0.0062123 -0.0018014 
go 0.00091178 0.0021712 0.0067739 0.0016724 0.0035748 -0.00079868 0.0027881 0.0023326 -0.0087421 0.0047367 0.0054386 -0.0053842 -0.0091637 -0.00079405 0.0068916 0.00070357 0.0081766 0.0044181 0.0041896 0.0049134 0.00094845 0.0023705 0.0045644 0.00015303 -0.0033629 -0.0063209 0.0052515 0.0037854 -0.00018051 0.013361 0.012588 0.0010898 0.0018402 -0.006959 -0.0012408 0.0027055 0.004263 0.003306 -0.0073525 0.0032443 -0.0047676 -0.0030005 0.00086967 0.0056745 -0.0069452 -0.0081087 -0.0024409 0.00037038 -0.0031998 0.0022116 0.0035416 0.0024376 -0.010418 0.0074358 0.0010222 0.0065247 -0.00046084 -0.0043393 -0.0099946 0.0086185 0.0042771 -0.0040115 0.0039442 0.014779 -0.0023366 -1.9918e-05 0.0022338 -0.0016337 0.0024644 -0.0031981 0.0015417 -0.0036929 -0.0041964 0.0098685 0.0068443 0.0074413 -0.0015339 0.002954 0.00062596 0.014969 0.004365 -0.0026021 -0.0046715 -0.0072493 -0.0052232 0.00097666 -0.0044246 0.002131 0.0022179 0.0087896 -0.0021176 -0.002694 0.00042045 0.016041 -0.0017166 -0.0015976 -0.0079408 0.00024844 0.012245 -0.0032838 
can -0.00014531 0.00053266 -0.0041111 0.0015917 -0.0013632 0.0011941 -0.0023313 -0.0064293 0.0027215 -0.011093 -0.013044 0.0069948 0.0019346 0.0071897 0.0023106 0.00035305 -0.00024021 0.0010427 -0.00012096 -0.0067194 -0.004978 -0.0033525 -0.0019862 -0.0042355 -0.00030754 0.001807 -0.0025997 0.0026342 0.0013338 -0.004771 -0.00028214 -0.0025273 -0.0012351 0.0032185 -0.0069112 0.00034962 -0.0031892 -0.0020188 0.0046967 -0.0024354 -0.0051975 0.0023356 -0.0056912 0.0091177 0.015905 0.0044883 0.0023712 0.010928 0.0003124 0.0044249 -0.011498 0.000842 0.0032727 -0.0054058 -0.010167 -0.002447 -0.0031791 0.0045087 -0.0011038 -0.0098334 -0.013343 0.0038671 -0.0018345 -0.011217 0.0020507 -0.0080803 -0.0044435 0.00062396 -0.0057 -6.5526e-05 2.7544e-05 -0.0034554 0.0022429 -0.0020483 -0.0035532 -0.0035608 0.0015762 0.0013545 0.0028837 -0.0097593 0.0014684 0.0018114 -0.002692 -0.00045425 0.0036311 -0.0012291 0.0010826 -0.0042464 -0.0061661 -0.0024765 -0.006188 0.0010972 -0.0059868 -0.011503 0.0047615 2.537e-05 -0.0017815 4.7108e-05 -0.013614 0.00034712 
Windows -0.00088923 -0.0048304 -0.0050354 0.0053035 -0.0020973 0.00089242 -0.0067075 -0.0031782 -0.00035667 -0.0071906 -0.0070337 0.0028012 0.001823 0.0035632 -0.00024814 -0.00022236 -0.0020706 -0.0020565 0.0028898 -0.0046131 -0.0033712 -0.00068338 0.0024018 0.0012744 -0.00044175 0.0033806 0.004496 -0.0024918 0.0025669 -0.0039939 -0.0023435 -0.0028594 -0.0028782 0.0035273 -0.0029295 0.0011436 -0.0020946 -0.00023143 0.0030068 -0.0022824 0.001016 -0.0010031 -0.004868 0.0019567 0.0087748 -0.00045004 0.0043559 0.0043767 -0.00012092 -0.002521 -0.0087307 -0.00042037 0.0077903 -0.0032289 -0.0024508 -0.0054143 -0.00081859 0.0029303 0.0031221 -0.0045641 -0.0070418 0.00019866 0.00085949 -0.0076837 0.0027233 0.0010852 -0.0022751 -0.0012857 -0.0069737 0.00070916 0.00064438 -0.00057242 0.0045449 -0.0037838 0.00077042 -0.0058665 0.00064435 0.0029156 0.00087414 -0.0052099 -0.00203 0.0050589 -0.0041345 0.0045602 0.0049413 -0.00043716 -0.0019029 -0.0062201 -0.0030955 -0.0040017 -0.0036074 -0.0017293 -0.0029488 -0.0056432 0.0027136 0.002626 0.004216 0.00010521 -0.0036342 -0.00074543 
for 0.0071791 0.0040917 -0.0042392 -0.0043965 0.0020905 0.0058389 -0.0042319 -0.005838 0.00073428 -0.0053632 -0.0087426 0.0014672 0.0017104 -0.0007022 -0.0034592 -0.00087599 -0.0043367 0.0002654 0.00036192 -3.1724e-05 -0.0034577 0.0010419 -0.0045842 0.0055806 -0.0045007 0.0039135 -0.0098013 -0.00064517 0.0031807 -0.0072281 0.0017419 0.0011491 -0.000142 -0.0022002 0.0033629 0.0032016 -0.00078525 0.0038158 0.0077472 -0.0036304 -0.0042168 0.0017196 0.0045141 -0.0012207 0.012161 0.0058736 0.005842 0.0068155 0.00138 0.0015858 -0.0039117 -0.00064513 0.0053621 -0.0063958 -0.004639 0.00030781 -0.0030215 0.005825 0.0018101 -0.0053221 -0.0041542 0.0056143 0.0014221 -0.0030052 0.0031094 -0.0053337 0.0014072 -0.00023315 -0.0065278 0.0031361 0.0046194 -0.0032702 0.0066773 0.0034984 -0.0019352 -0.00087047 0.0010644 -0.0027028 -0.0020067 -0.0033118 0.00023514 0.0051602 -0.0031856 0.007003 0.0019402 0.0001063 0.0023037 0.0016834 -0.0063115 -0.01077 -0.0064867 0.00084491 -0.010514 -0.0036531 0.0034032 0.0021985 -0.0031078 -0.0018924 -0.0022512 4.3335e-05 
or 0.0029484 0.0035125 -0.0075964 -0.0018196 0.0012916 0.0065924 -0.0094851 -0.0098115 0.0031429 -0.0069018 -0.0099981 0.0095091 0.013006 0.0041393 0.00088221 -0.001213 0.0051547 0.00085151 -0.0046393 -0.0050186 -0.00053771 0.0038083 0.00012809 -0.0030652 -7.3524e-05 -0.0033153 0.00040604 0.00071633 0.0061434 -0.0051627 -0.0026568 -0.001799 0.0017664 0.0011824 -0.010696 -0.00082357 0.0018888 -0.0035598 0.0019776 -0.0012495 -0.0013865 0.0044197 -0.0019882 0.0050708 0.01141 -0.0010384 0.0030558 0.0054858 0.0064733 0.0017931 -0.0036544 -0.0081579 -0.00071314 -0.0020108 -0.012376 -0.0053332 -0.0025188 -0.0037968 -0.00013845 -0.010142 -0.011003 0.0087516 0.0017001 -0.0021403 -0.0014584 -0.0055547 -0.0070397 -0.0011375 -0.0016473 -0.0049755 0.0034672 0.0014596 0.0039494 -0.0066448 -0.0026112 -0.0026054 0.0015129 0.00049386 0.0051231 -0.01054 0.00073311 0.0038472 0.001621 -0.00015758 0.0033311 -0.0045065 -0.00072033 -0.005566 -0.0068267 0.0010837 -0.0017039 -0.0025328 -0.0030829 -0.01495 0.00023829 -0.0038312 0.00042935 -0.00068412 -0.0075022 0.0012337 
a 0.00048028 -0.010791 -0.00054984 0.015927 -0.010367 -0.00049298 -0.0064031 -0.010758 0.0052264 -0.013089 -0.0063489 0.0056908 -0.013555 0.0036055 0.0018179 0.0034577 -0.00023555 -0.0025034 0.001436 -0.011795 -0.0068217 -0.0012873 -0.0077217 0.0047461 0.011228 0.00075941 0.0099131 0.0049995 0.0096769 0.001037 0.0039715 -0.00026741 -0.0060081 0.0023288 -0.0021213 0.012681 -0.013019 -0.0090203 0.010764 -0.011082 7.4329e-05 0.0066085 -0.0017609 0.0055807 0.019135 -0.0016107 0.00019568 0.013571 0.010194 -0.0077998 -0.013157 0.0012205 0.0013179 -0.0051438 -0.015523 -0.006162 -0.010009 0.0014436 -0.0063846 -0.00065803 -0.012673 0.0051909 0.00061457 -0.0076254 0.0093886 -0.0096709 -0.0084431 0.0039219 -0.011283 -0.0038966 -0.00092583 0.0078511 0.0089068 0.0010752 0.00044959 -0.010864 0.0065915 0.0016576 -0.0043231 -0.011152 -0.00025195 0.015135 -0.015979 0.016967 0.0079656 -0.0020004 0.0021529 -0.01888 -0.013052 -0.0096654 -0.0099971 0.0056141 -0.0095576 -0.013985 0.00058127 0.0076793 0.0027213 0.0024194 0.0034869 -0.0040696 
#### -0.0038348 0.0003069 0.0021924 -0.00034236 -0.0066588 -0.002891 0.0019968 -0.0016906 0.0081417 0.004427 0.0063395 0.00028661 -0.0028081 -0.0027718 -0.0043684 -0.0050641 -0.0021253 -0.0018992 -0.00098933 0.0067556 -0.00034647 -8.1277e-05 -0.0010484 -0.0051784 0.0024319 -0.00042325 -0.0021082 -0.0027535 -0.0049739 0.0015661 0.001028 0.0050224 0.0008623 0.00019901 0.0011509 -0.0018346 -0.0020752 -0.0091683 -0.0033992 -0.0030843 -0.002384 0.00049275 0.0026929 0.0013619 -0.001704 0.0073472 -0.001778 -0.0029714 0.001236 -0.0022529 0.0051272 0.0055936 0.0016758 -0.0041761 0.0059179 -0.0029586 -0.0033851 0.0016829 0.0015049 0.0015082 0.002846 -0.002015 -0.00046533 -0.0014514 0.001934 0.0037262 0.0011608 -0.00072183 0.0050289 0.002295 0.002149 0.0058615 -0.0042275 0.00062497 -0.0038736 -0.0013161 0.001188 0.0045437 -0.0053308 0.0027907 0.0035945 -0.0033515 0.0041265 -0.00043551 -0.0025941 -0.0024279 0.0038682 0.0012694 -0.0027367 -0.00018181 -0.0022816 0.00057054 -0.00084496 0.0023538 -0.0023459 -0.0087557 0.0022843 0.0032999 0.0050101 0.001389 
generate -0.00088512 0.0025131 0.0057665 -0.0014656 0.0043371 -0.00011469 0.0045862 0.0029932 -0.0029439 0.0062401 0.0069598 -0.0046523 -0.0036724 -0.0015054 0.005244 -0.001223 0.0042507 -0.0012675 -0.00080765 0.0049975 0.00020505 0.004884 -0.00064748 0.0015205 0.0028303 -0.0016593 0.002966 0.0049726 -0.0014734 0.0065658 0.0047265 0.0033538 0.00022434 -0.0018661 0.00068246 -0.0022232 0.0065835 0.0001043 -0.0055501 0.00472 0.00124 -0.00032046 0.0035413 -0.00024046 -0.0087129 -0.0021965 -0.0022686 -0.0030214 -0.001457 0.0024508 0.010664 0.0040355 -0.00062277 0.00084662 0.0060946 0.0011831 0.00084957 -0.0035015 -0.0055687 0.0030295 0.0090237 -0.0017322 0.0033629 0.011969 0.0016218 0.00099121 0.0015325 -0.002798 0.0024735 -0.0028421 0.00071802 -0.0013724 -0.0034489 0.0076734 0.0041572 0.0060142 4.7191e-05 0.00097039 -0.0020217 0.011838 0.00028235 -0.0045687 -0.0031775 0.0017376 -0.0053336 -0.00097759 -0.0035501 0.0038874 0.0049266 0.0056148 0.0023686 0.00049236 0.0041475 0.0088643 -0.0020355 0.00065774 -0.0030348 0.00030768 0.010738 0.00056606 
install 5.1934e-05 -0.0072012 -0.0011297 0.0023238 -0.00095136 0.0011908 -0.0089538 -0.0059785 0.0031253 -0.0083344 -0.0087646 0.0034065 -0.00036803 0.0054742 -0.00014936 0.0019784 -0.0021408 -0.00058528 -0.00015606 -0.0060159 -0.003983 0.0002798 0.0016972 0.00081337 0.0011829 0.0024506 0.0018744 -0.0014921 0.0024517 -0.0015661 -0.0026558 -0.0026381 -0.0037718 0.0024054 -0.007677 0.0024339 -0.00034184 -0.0058594 0.0072484 -0.007205 -0.0020554 0.0040634 -0.0017681 0.0024607 0.011946 0.0034696 0.0044228 0.0061799 0.0048602 -0.0010635 -0.0052268 0.00043961 0.004628 -0.0033434 -0.004485 -0.0068914 -0.0028387 -0.0025225 0.0026473 -0.0069285 -0.009707 0.0018592 0.001141 -0.0086132 0.00024718 -0.0023903 -0.0029994 0.0015879 -0.0073293 -0.0023656 0.0019323 0.0020617 0.0031818 -0.0051973 0.0024174 -0.0041791 0.0029345 0.0053745 -0.001329 -0.007816 -0.00061117 0.0063232 -0.0017046 0.0018711 0.0044395 9.637e-05 -0.0030554 -0.0060876 -0.0025052 -0.0076647 -0.0053915 0.00020028 -0.0020058 -0.0068049 0.0023119 -0.00057844 0.0038413 0.00020388 -0.0046457 -0.0010118 
Linux -0.0011136 8.455e-05 0.00015297 0.0018089 -0.00032532 -0.0019939 0.0002854 0.0055287 0.0027586 -0.0030318 0.0028325 0.0013679 0.00051575 -0.0028255 0.0002642 0.00069384 0.0010831 0.0030107 0.0021222 -0.00043542 -0.00073284 0.0007024 -0.0036563 0.00088019 0.0022605 0.0013838 0.0039818 0.0009856 0.00019895 -0.0022994 0.0040852 -0.0018066 0.0013376 0.00069998 -0.0016654 -0.00092054 -0.0022946 0.0021774 0.00075843 0.0015243 -0.00029444 -0.00088367 -0.0023268 0.00485 0.00019478 0.001702 -0.0041624 0.0013584 0.0022217 -0.001173 -0.0010941 -0.002482 0.0050558 -0.0010604 0.0037151 -0.0080474 0.0026507 0.0011816 0.00099696 0.0024517 -0.0014985 -0.0016985 -0.0010984 -0.0017672 0.0019653 0.0057908 -0.0012144 0.00050782 0.0011129 -0.0011734 -0.0034714 0.0011947 -0.0018249 -0.00098254 0.0014105 -0.0037043 -0.00082027 -0.00076682 0.0015565 -0.0029678 0.0016693 -0.0032562 -0.0050638 4.609e-05 0.00090797 -0.0022801 0.0033163 -0.0029368 0.0038848 0.0024133 -0.00074758 -0.00070251 8.8967e-05 -0.00097726 -0.00072458 0.002249 0.0025661 0.00015836 -0.0026476 0.0034136 
as 0.014026 0.00078963 -3.9305e-06 -0.0075062 0.017759 -0.0048922 -0.00086179 0.0038116 0.0077218 -0.012547 -0.01801 -0.01187 0.0058546 0.0028058 0.0033581 0.0031382 -0.0087788 0.0054868 0.006269 -0.000269 -0.0032228 -0.003088 -0.0040079 0.0026101 -0.021417 -0.00051695 0.0002442 -0.0088568 -0.0024373 -0.019444 -0.0078252 -0.0062298 0.014966 -0.0019817 0.0034972 -0.0034735 -0.001876 0.01122 7.172e-05 0.0029273 -0.0019189 -0.0048808 0.013171 -5.2901e-05 -0.0011777 -0.0028299 -0.0030249 0.013783 -0.0041145 -0.004539 0.0043317 0.00062498 -0.012918 0.0099882 -0.011361 0.013635 3.9224e-05 -0.0017381 0.015008 -0.0039896 -0.0009799 -0.0071804 -0.0073003 0.010139 -0.013141 0.012283 0.010717 0.0036012 0.0074904 -0.0029971 0.0047905 -0.0078229 0.0099215 -0.0083025 0.0015952 0.0080089 -0.0094186 -0.010205 0.0060642 -0.016011 0.002723 -0.0087859 0.010025 -0.01038 0.0057337 0.005901 -0.0015023 0.010858 0.011618 0.0017271 -0.0096274 0.0030395 0.013811 -0.0014286 0.011641 0.0058148 -0.008043 0.0002231 -0.013306 -0.0076205 
an 0.010559 -0.015152 -0.003669 0.0099519 -0.0040897 0.006217 -0.011892 -0.012559 -0.0036741 -0.016726 -0.024627 0.0077419 0.0013635 0.0090787 0.0014565 0.006793 -0.0049435 -0.0098793 -0.0013704 -0.011802 -0.0032465 -0.00067263 0.0044092 0.0029762 -0.0071321 0.0071728 -0.0024884 0.001095 0.0065381 -0.010707 -0.012364 -0.0075451 0.00056185 0.015607 -0.0061019 0.0065099 -0.0104 0.003635 0.0098771 -0.0039486 -0.0041884 0.00051368 -0.0053496 0.0088766 0.027718 0.009106 0.011011 0.015961 0.0033968 0.0039259 -0.015204 0.00078779 0.014526 -0.0087249 -0.017802 -0.0073398 -0.0026713 -0.0012943 0.0029232 -0.017839 -0.020461 0.0029969 -0.005591 -0.018849 0.0027071 -0.013264 -0.001981 0.0030627 -0.015846 0.00063503 0.0060391 -0.0016845 0.0064175 -0.0063646 -0.0072176 0.00050024 0.0011415 0.0062549 -0.00039036 -0.014466 -0.0040995 0.01314 -0.011273 0.0054708 0.0046099 -0.0037664 -0.0051198 -0.013878 -0.0056961 -0.012114 -0.0074599 -0.004076 -0.011823 -0.020107 0.0044349 0.00010877 0.0010391 -0.0037757 -0.015919 -9.4913e-05 
will -0.0021352 -0.0095065 0.00025061 0.0084102 -0.0026493 0.0017461 -0.0098234 -0.0068922 0.0020726 -0.01232 -0.012727 0.0069113 0.0031269 0.0071703 0.0033953 0.0051527 -0.0011978 -0.0030398 0.0020374 -0.0030533 -0.0057618 -0.00078627 0.0019122 0.0051932 0.0051566 0.0025479 0.0012392 -0.0045682 0.0036165 -0.0051204 -0.00099371 6.3213e-05 -0.00030134 0.0051783 -0.010672 0.0025238 -0.0015704 -0.0034923 0.0092007 -0.0053692 -0.00074001 0.0048947 -0.0055182 0.0041257 0.015012 0.0045903 0.003592 0.0057377 0.007149 -0.0032417 -0.0096738 0.00066459 0.0083129 -0.0043052 -0.00062726 -0.0092789 -0.00647 5.8455e-05 0.0007872 -0.0091263 -0.013453 -0.0024062 -0.0018491 -0.0076956 0.0024938 0.00039673 -0.0027367 0.0021227 -0.0078857 -0.0059556 -4.2525e-05 0.0057383 -0.0034201 -0.0074794 -0.00031986 -0.0040323 0.0021156 0.0072288 -0.0017414 -0.0091696 -0.00071073 0.0043291 -0.0066034 0.00056124 0.0031571 -0.0012031 -0.0042429 -0.011175 -0.0029596 -0.0085983 -0.0080452 -0.0021758 -0.0047691 -0.0069191 0.0082495 0.00039455 0.0062303 0.0013785 -0.010289 0.0025063 
of 0.0019174 -0.0057014 -0.0054363 0.0037689 0.0036808 0.00094139 -0.011907 -0.0033342 -0.0019458 -0.0082246 -0.007006 0.0097255 0.0042111 0.0091258 0.00094374 0.0055965 0.00076919 -0.00024067 0.0037417 -0.0052318 -0.0008298 -0.0077609 0.0051087 -0.0036298 -0.0016656 -0.0017647 0.01033 -0.0077745 -0.0046276 -0.0093194 -0.0015647 -0.00035944 0.0020262 0.0073652 -0.01004 0.00064492 0.00012555 -0.0066844 0.00027296 -0.0031762 -0.00211 0.013599 -0.0047598 0.00074151 0.01827 0.00022982 0.0053977 0.0097984 0.00038117 -0.0035388 -0.010559 -0.00070568 -0.00075987 -0.003329 -0.011674 -0.013074 -0.0020164 -0.0024551 -0.0084254 -0.011428 -0.011268 0.0057867 0.0023833 -0.011409 -0.0053938 -0.013259 -0.0056713 -0.00064799 -0.0045636 -0.0010868 0.0039577 0.0027695 0.00093366 -0.0074757 0.0018894 0.0054205 -0.0017122 0.007038 -0.00049111 -0.010998 0.00093482 -0.0034035 -0.0039968 -0.0041123 0.0059712 -0.001527 -0.0053656 -0.005444 -0.0051996 -0.0026279 -0.0020878 0.0038493 -0.010576 -0.015124 0.010405 -0.0070662 0.00017735 0.0036274 -0.0087274 -0.0022208 
ROCm 0.003185 0.00090715 0.0013247 0.0024629 0.0025585 0.0013111 -0.0049047 -0.0020885 -0.00094554 -0.0029368 -0.010761 0.0023227 0.0020747 0.0027378 -0.0025579 0.0016187 -0.0031946 -0.00010685 0.0041613 0.00049419 -0.0022543 -0.00034182 -0.0049116 0.002159 -0.0047015 0.0020921 -0.0031201 -0.0011558 0.00013919 -0.0092446 -0.00040136 -0.002899 0.0017904 0.0014787 -0.00047031 0.0029587 0.0010016 0.0023435 -0.00013741 0.0042104 -0.0058456 0.0014659 0.00142 0.0049873 0.010882 0.0018502 0.0026702 0.003687 0.0024792 -0.0013253 -0.0052654 0.0014691 -0.0003744 0.00045473 0.00041439 -0.0056449 0.0013516 0.0031707 0.0018231 -0.0015594 -0.0068048 0.00063855 -0.0017246 -0.0044167 -0.0032645 -0.0024544 0.0001201 0.0027688 -0.0024624 0.0027086 -0.0019506 -0.0019535 0.0058032 -0.0046692 -0.0018548 -0.00036145 0.00071962 0.001171 -0.00081546 -0.0084833 -0.00073669 0.003182 0.0014833 0.0014153 -0.0010654 0.0010665 -0.00096981 -0.0050526 0.0005006 -0.0045343 -0.0033344 -0.00057233 -0.0048362 -0.01013 0.0082167 -0.0023755 0.00064497 -0.00066369 -0.0071221 0.00052352 
location -6.8281e-05 -0.0021688 -0.0038214 0.00092655 -0.0044331 0.0065507 -0.0041833 -0.0094365 -0.00029979 -0.0071496 -0.0067205 0.0038761 -0.0034082 0.0044109 0.0017936 0.0032841 0.0023788 0.00072829 -0.0011779 -0.0039837 -0.00052778 -0.0011316 0.00023647 0.0006187 -0.0013894 0.0031771 0.0042323 -0.0015497 -1.8877e-05 -0.0054702 -0.0035878 -0.0029291 -0.0037837 0.0069621 -0.0019968 0.001564 -0.003826 0.00096706 0.0046101 0.0025529 -0.00074056 0.0031389 -0.0046037 0.0044418 0.0083 0.0014786 0.0025895 0.0064866 -0.00042969 0.00025313 -0.0075507 -0.00097048 0.0040529 -0.0031921 -0.0091793 -0.0016194 -0.00090889 -0.0033939 -0.0012832 -0.006856 -0.0074071 0.00029688 0.0013616 -0.0094224 -0.00224 -0.0047835 -0.0044821 0.0010627 -0.0034708 9.2364e-05 -0.0012347 -0.003127 -0.00023901 -0.0045513 0.0010047 -0.0010126 0.00021026 -0.0013874 0.0039794 -0.0082206 0.0019748 0.0037563 -0.0034718 -0.003421 0.0018787 -0.00098528 0.00052889 -0.0072592 -0.0020545 -0.00017881 -0.0032571 0.0020025 -0.0032041 -0.010964 0.0032945 -0.0029562 0.0021919 0.0072408 -0.0060353 0.0015692 
./... -0.0040126 0.0055608 0.0030272 0.00077615 0.0025763 -0.00061811 0.0044302 0.0076713 -0.001188 0.012092 0.0081104 -0.0049938 -0.0016097 -0.0040607 0.0049798 0.0025652 -0.00029772 0.003457 -0.0021446 0.0033034 0.0018965 0.0030108 0.0046032 -0.0039998 0.001345 -0.0059795 0.0032262 0.005908 0.00076268 0.0085565 0.0030923 -0.0014471 0.0012476 -0.004378 -0.0020239 0.00071953 -0.0015135 -0.0044204 -0.0042653 -0.004463 0.0042878 0.0031622 0.0047477 -0.0040355 -0.016232 -0.0049329 0.0017878 -0.0082614 -0.0019893 -0.0035759 0.0061016 0.0032769 -0.0058548 0.00030418 -0.00017063 0.0062958 0.0056793 -0.0048828 -0.0047965 0.0048573 0.0031877 0.0056768 0.0013064 0.0091427 0.0028716 1.8736e-05 0.0068323 0.00060965 0.0022957 -0.00066867 -0.0024555 0.0034377 -0.005928 0.0021135 0.0017981 -0.0034088 0.005897 0.0010768 0.0040082 0.015219 -0.0049366 -0.0039895 -0.0029952 -0.0011301 0.0018208 0.003149 -0.0029979 0.0075178 -0.0020845 0.0066717 0.010992 0.0036666 0.0047805 0.0091726 -0.0043456 0.0021747 -0.0023627 -0.0047953 0.010759 0.00076141 
your 0.003321 -0.0038727 -0.003297 0.0036633 -0.0080526 0.0028262 -0.0084673 -0.010945 0.0050656 -0.0096492 -0.0071416 0.0066042 -0.002768 0.0041108 0.0067161 0.003038 -0.003597 -0.0020974 0.0026027 -0.0055933 -0.0016776 -0.00048133 -0.0020716 -0.0018494 0.002268 0.00186 0.0062944 -0.004049 -0.0011529 -0.0054065 0.00015771 0.0020932 -0.0059065 0.0035261 -0.010919 0.0035894 -0.0078305 -0.0039641 0.011104 -0.00034525 0.0025785 0.0084489 -0.007379 0.0035605 0.012792 0.00073194 -0.00072565 0.0052475 0.00047669 -0.0055604 -0.0083492 -0.0041661 0.0089574 -0.0057503 -0.0089801 -0.0073297 -0.0026052 0.0016467 -0.0036263 -0.010287 -0.010991 -0.0021155 0.0030928 -0.0067465 0.001174 -0.00609 -0.0065489 0.002854 -0.0095813 4.8874e-05 0.0015558 0.0012799 -0.0026764 -0.0038307 -0.0012533 -0.0015586 0.0057508 0.008018 -0.0014578 -0.01079 -0.006301 0.0039495 -0.0061419 0.0022884 0.0008672 -0.0058035 -0.0023059 -0.012102 -0.0054508 -0.0064905 -0.010684 0.0026923 -0.0098102 -0.0095947 0.0018418 -0.010192 0.0030766 0.0052906 -0.0046821 -0.0058137 
development 0.0075082 -0.0020394 -0.00074013 -0.0020306 0.0042374 0.0018308 -0.0018388 -0.0032585 0.0025003 -0.0083726 -0.008241 0.0012008 0.0011469 0.0015901 -0.0029374 0.0010663 -0.0051538 0.00069814 0.0049561 -0.0020635 -0.004242 -0.0015934 -0.0006373 0.0012445 -0.0037348 0.0013138 -0.0011286 -0.0025633 -0.00088914 -0.006585 -0.0049966 -0.0023805 0.0012032 0.00045956 0.0015943 0.0013527 -0.0028121 0.00053193 0.001807 -0.0010531 -0.0021272 0.0003128 0.0009675 0.00075245 0.0072195 0.0031205 0.0029338 0.0070592 0.00028055 0.00028241 -0.0043213 0.0036471 -0.0013691 0.00077902 -0.0049053 -0.0010471 -0.0011794 0.0024313 0.0034237 -0.0055071 -0.0041784 -0.0018225 0.00064571 -0.0029166 -0.00044953 -9.6746e-05 -0.00011993 0.0022489 -0.0032094 -0.00058472 0.0015073 -0.0018331 0.0053678 -0.0014454 0.0013547 -0.00030631 -0.0024856 -0.0018856 -0.00086424 -0.0070063 -0.0013015 0.003355 -6.5578e-05 0.0040454 0.0035855 0.0021434 -0.0022975 0.00086855 -0.0025124 -0.0030441 -0.0053209 0.0029241 -0.0011549 -0.0062993 0.0037593 0.0018716 -0.0041247 -0.0023268 -0.008249 -0.0039846 
is -0.0025076 -0.017055 -0.0063507 0.013807 -0.0098652 -0.00070779 -0.019462 -0.016001 0.012615 -0.020582 -0.020197 0.010055 -0.010697 0.01554 -0.002735 -0.0011415 -0.002586 -0.0058642 0.0044755 -0.0093733 -0.0036175 -0.00010166 -0.0042965 0.0022733 0.0031881 0.0015944 -0.00056165 -0.007309 0.0057207 -0.0047722 -0.0093717 -0.00086121 -0.0082638 0.0091633 -0.0022514 0.011866 -0.0041767 -0.012831 0.020294 -0.010676 -0.0074119 0.0045473 -0.0079384 0.0013577 0.031257 0.0081227 0.0078855 0.019228 0.0078148 0.00018834 -0.0073567 0.0040053 0.0089707 -0.010012 -0.018714 -0.015748 -0.016563 0.0027625 0.0044994 -0.0072097 -0.013692 0.0039955 -0.00077417 -0.022561 0.0091968 0.0014677 -0.0043994 0.0074162 -0.015555 -0.0029825 0.01373 0.0035837 0.0052162 -0.0031741 0.00088725 -0.0056958 0.0080799 0.0067979 -0.009715 -0.012008 -0.0032608 0.015578 -0.0077332 0.016854 0.0090309 -0.0061228 -0.0026634 -0.012853 -0.0091619 -0.019524 -0.021629 -0.0048163 -0.010679 -0.0045734 0.0059002 0.0015232 6.9722e-06 0.004171 -0.011359 -0.0069831 
. -0.0035303 0.0040075 0.0098131 0.0048558 -0.0067425 0.00062811 -0.0067631 0.0089694 -0.0046643 0.010134 0.01008 0.00084597 -0.0041385 -0.0065172 0.014118 0.0034031 0.0028948 0.0041797 0.00013032 -0.0021031 -0.0017473 -0.002643 0.0035636 -0.0083263 -0.0025426 -0.003745 0.012541 0.0097115 -0.0013652 0.0082324 0.010866 0.0027593 0.002416 0.0098885 -0.003226 -0.0053727 0.0031928 0.0023937 0.0050411 -0.0039271 0.0098473 -0.00074471 -0.0010931 -0.0057656 -0.0044692 -0.0034749 0.0034194 -0.0089136 0.0085809 -0.0034859 0.014634 -0.0094445 0.00054902 0.0029883 0.0040998 0.0024627 -0.0016276 -0.008809 -0.0018602 -0.005581 0.01124 -0.0011599 -0.0030261 0.0099207 0.006928 -0.0085845 -0.0071169 0.010045 -0.001683 -0.0027542 0.0075172 0.0026547 -0.0096624 0.0048958 -0.0094384 0.0033466 0.014087 0.0089763 -0.0069631 0.0147 -0.00061521 -0.011903 -0.0070969 -0.0033214 -0.0046923 -0.0016625 -0.0037962 0.0025799 -0.014436 0.0033985 0.0050732 -0.0011116 0.0036926 0.011904 -0.011214 0.0067768 -0.011241 -0.0066869 0.011118 -0.010019 
CUDA -0.0025758 -0.00012929 0.0012736 0.00033088 0.00093021 -0.00048457 0.00021455 0.0005501 -0.00013831 -0.0024505 -0.0070245 0.0013027 0.0028707 0.00027777 -0.0011784 -0.0037475 -0.0036223 0.0011995 0.00063658 -0.0004405 -0.0060711 0.0026481 -0.0014235 0.00012498 -0.0014808 0.001968 0.00079671 0.00023432 0.0020014 -0.0026773 -0.0024677 -0.0027704 -0.0027252 0.0010408 -0.0013798 0.0012837 -0.00066142 -0.0052851 0.0033362 -0.0073438 -1.5251e-05 0.00099885 -0.0011392 0.0020446 0.0020972 -0.0004387 0.001084 0.0026518 0.00041036 -0.003435 -0.007133 0.00077837 0.0054826 -0.0021982 -0.0045942 -0.0031036 0.0029349 -0.0038897 0.0016098 -0.002094 -0.0054198 -0.0042126 0.002369 -0.0018968 -0.0019814 0.0025141 -0.0014147 -0.0017379 -0.0033408 -0.0028274 -0.0039043 -0.00058531 0.0036596 -0.00015512 0.0021534 -0.0036628 -0.001224 0.0016963 0.0016357 -0.0040324 -0.00071561 0.00022694 0.00032168 0.0026982 0.00097297 0.00046266 0.00087895 -0.0015325 -0.0042387 -0.0010537 0.00022982 -0.00038336 -0.0030896 -0.0024949 0.0021888 0.0023617 0.0022181 0.00033433 -0.0024824 -0.0010619 
packages 0.011337 0.0038254 -0.0011897 -0.010095 0.0050157 -0.00017466 0.0032545 0.0021063 -0.0040919 0.00039441 -0.0077142 -0.0039751 0.00057128 -0.0038101 -0.0023477 -0.0030216 -0.0092555 -0.0039275 7.0447e-05 0.0051763 0.00015507 -0.0022925 -0.0044614 0.0051614 -0.015543 0.0018278 -0.0083784 -0.0023992 0.0010065 -0.0084421 -0.0020674 -0.00032858 0.0071004 -0.0021188 0.012323 -0.0023193 0.001828 0.010226 -0.00338 0.0033083 -0.0046265 -0.0046371 0.0058678 -0.0020287 0.00068489 0.0015611 -0.00075228 0.0034723 -0.0040096 0.0018619 0.0072384 0.00073184 -0.0026657 -0.00077676 -0.0013342 0.0080536 0.0010466 0.0040141 0.0046844 0.001296 0.0047018 -0.00059162 -0.002691 0.0034305 -0.0036637 0.0012971 0.010175 -0.0020682 0.0020796 0.0048581 0.0048197 -0.0091016 0.0071225 0.002146 -0.006245 0.0045953 -0.0069207 -0.0089354 0.0018196 -0.0028414 -0.0017141 -0.0020739 0.0069715 -0.00075191 0.0012419 0.0034375 -0.00030338 0.010071 0.0031087 -0.00097422 -0.0036293 0.00060072 0.00061587 0.0028024 -0.00071769 0.0028122 -0.0060447 -0.0042808 -0.0053586 -0.0034604 
gcc 0.0042678 -0.018842 -0.0013376 0.0089389 -0.0075819 0.0033578 -0.016695 -0.010978 0.004802 -0.023261 -0.020754 0.010986 -0.0063281 0.0099538 -0.00087158 0.0045441 -0.0070838 -0.0063215 0.0025006 -0.0083498 -0.011813 0.0026996 -0.0025421 0.0062873 0.0095257 0.0041727 0.0061517 -0.0047336 0.0046166 -0.0023367 -0.002177 -0.0022336 -0.0042721 0.005538 -0.0065199 0.0071604 -0.0062263 -0.012678 0.014272 -0.0106 0.00090389 0.0044844 -0.0033166 0.0064636 0.025702 -0.0032505 0.0093508 0.01695 0.0080659 -0.0033403 -0.013071 -0.0024293 0.0089287 -0.0090987 -0.0088935 -0.010363 -0.0094075 0.0021855 0.0036022 -0.01092 -0.014227 -0.00084412 0.0022715 -0.017189 0.0057602 0.0014878 -0.0056895 0.004706 -0.01928 -0.005673 0.0020265 -0.00091571 0.00563 -0.0092111 0.0053503 -0.0086508 0.0049016 0.0034109 -0.0037151 -0.010767 -0.00077014 0.015861 -0.013674 0.010732 0.010445 -0.0040416 -0.0011833 -0.013378 -0.0086987 -0.010693 -0.010164 -0.0028672 -0.010575 -0.012754 0.006231 0.0062392 0.005747 0.0022266 -0.0089756 -0.00051062 
```bash 0.0012134 -0.0012219 0.0009462 -0.00076179 0.00066851 0.00018754 0.0029448 0.0025758 -0.0018732 -0.0013442 0.0012731 -0.0006131 0.0010431 0.0024582 -0.0021479 -0.0014163 -0.00077399 0.0003366 -0.0014909 3.9198e-05 0.0010501 -0.0011714 0.0015964 -0.0007924 -0.00077908 -0.0025176 0.0013549 0.0022309 0.0006987 -9.1729e-05 0.0013718 -0.00023981 -0.0013319 0.0015861 0.0013049 0.00044898 0.00058355 -0.00075759 -0.00058512 -0.00022593 0.0013698 -0.0019889 -0.00011601 0.001561 0.00037072 0.00075821 -0.00058308 -0.0013231 0.0013804 -0.0017519 -0.00067772 0.0014314 -0.00052345 -0.00012851 0.001315 0.0014288 0.0019587 -0.0013821 -0.0011182 0.00010319 -0.0005556 -0.00073158 -2.511e-05 0.0028305 0.0002829 -0.001218 0.0018832 -0.0014997 -4.6422e-05 -0.0010323 0.0023806 0.0022225 0.0013486 0.0014873 -0.0010722 -0.0005806 0.00038934 0.0015539 -6.169e-05 0.001323 0.0014926 0.0015256 -0.0012092 -0.00090615 -0.0033362 1.8683e-05 -0.00081941 0.00056061 -0.0024052 0.00077153 -0.0026202 0.00027653 0.0011205 -0.0013824 0.0014829 8.8781e-05 0.001979 0.00011928 0.00062705 -0.0025535 
