33 100
</s> -0.0086238 0.0068155 -0.0071436 -0.001003 0.0044926 0.0017969 0.003731 -0.0025822 0.010463 0.0071434 -0.0044357 0.0047819 0.0094772 0.0085445 -0.0040863 -0.0012975 0.00040296 0.0060984 0.00081537 -0.010223 -0.0032455 0.0066727 0.0045652 -0.0059219 0.0066463 -0.0064222 0.0018858 -0.0031133 -0.0002057 0.0098988 -0.0068631 -0.0035271 -0.0096029 -0.0061269 -0.010613 0.00047968 0.0035743 -0.01066 0.00044758 -0.0088035 0.0095333 0.009264 0.0030659 0.0025227 -0.00073123 0.001541 -0.0032502 -0.0013349 -0.0067167 0.0033086 -0.010102 0.0076633 -0.0091064 0.0032148 -0.004481 -0.0066952 0.00043477 0.0021586 0.0039721 0.0015231 -0.0091543 0.0066682 0.0078812 0.003151 -0.0035104 -0.0014504 -0.0086943 0.0059229 0.0057236 0.0050096 -0.0091873 -0.00012433 -0.0021636 0.00051564 0.00018909 -0.0052836 0.01063 0.0091806 -0.0016602 -0.0060956 -0.0092103 0.0080735 0.0083439 -0.0073392 -0.0038352 -0.0085139 0.00080907 -0.00097068 -0.0057143 -0.005342 0.0087206 0.005166 0.0064736 -0.01164 0.0014025 -0.008083 0.0058365 0.0097037 -0.0064853 -0.0017981 
the 0.0028041 -0.009994 -0.0046779 0.0082612 -0.010934 0.0060339 -0.015457 -0.0068084 0.00039771 -0.015499 -0.0071886 0.002449 -0.0055334 0.0082542 0.0054908 0.0096698 0.0037869 -0.0017234 0.0072207 -0.0033119 -0.00064857 -0.0032146 -0.0016978 0.0029029 -0.004681 0.0073384 0.0064024 -0.0065732 0.0012354 -0.017098 -0.012103 -0.0014614 0.00027875 0.01405 -0.0075738 0.0056207 -0.010907 0.00029011 0.0097454 0.0020427 -0.0024836 0.00097207 -0.0096101 0.0072743 0.019781 0.0014515 0.0040312 0.014418 -0.00095111 -0.0030495 -0.010865 -0.0003197 0.0091043 -0.00081297 -0.012672 -0.0040923 -0.0065574 -0.00037305 0.0040192 -0.012681 -0.011558 0.00025334 -0.0043483 -0.016074 0.0039833 -0.0045894 -0.0076849 0.0018963 -0.010052 0.0013096 0.0025564 -0.0025699 0.0015913 -0.0077537 -0.0018359 -0.0035652 -0.0020137 -0.00061275 0.0078784 -0.014776 -0.000994 0.0042309 -0.0086609 0.0037647 0.0029409 -0.0026365 -0.0036609 -0.015186 -0.0029439 -0.0039162 -0.0088453 -0.0025618 -0.0067288 -0.011656 0.013046 1.5302e-05 0.00040651 0.0044545 -0.01482 -0.0011076 
to 0.0043952 -0.024682 -0.0045708 0.013299 -0.0081132 9.7309e-06 -0.026897 -0.021427 0.010559 -0.023422 -0.03045 0.0085764 -0.0037509 0.012778 0.0030481 0.013983 0.0027177 -0.0063664 0.0079161 -0.013332 -0.0053004 -0.0050236 -0.0044927 0.0044768 0.0017073 0.0037684 0.012084 -0.012304 0.0050574 -0.0088843 -0.013552 0.0040437 -0.0050941 0.014635 -0.015116 0.0056215 -0.0092269 -0.0045996 0.018214 -0.0035529 -0.0050762 0.0091366 -0.0113 0.0044725 0.032958 0.0068101 0.0087231 0.026751 0.010433 0.0013792 -0.021544 -0.0029596 0.01174 -0.011299 -0.019103 -0.0096791 -0.006235 -0.00050879 0.0046889 -0.017402 -0.019969 0.0062267 -0.00021126 -0.018565 0.00041105 -0.0044557 -0.0077496 0.0074395 -0.017604 -0.0048231 0.0094787 0.00025884 0.0089958 -0.015621 -0.0029235 -0.0010494 0.0056433 0.0035971 -0.0024691 -0.022945 -0.00076287 0.012738 -0.01545 0.0049432 0.011915 -0.010331 -0.010011 -0.020411 -0.0061481 -0.012269 -0.0176 -0.0027586 -0.010395 -0.020004 0.014961 -0.0020006 -0.0013655 0.0064769 -0.02157 0.00025047 
``` -0.00017623 -0.0010021 -0.0003661 -0.0059022 0.00044371 0.00093941 -0.0013782 0.0031895 0.0011843 -0.0020503 -0.0013859 -0.00017604 0.0010363 0.0023277 0.0025671 -0.0041865 0.00014789 -0.0017051 -0.00086286 0.0059515 -0.00050634 0.0014524 0.0024705 0.00066805 -0.0017024 -0.0023555 0.0036467 0.00099266 7.4905e-05 -0.00041208 0.0017871 0.0017612 0.0010419 0.004188 -1.2923e-05 0.0025624 0.00032841 0.0021409 -0.0012887 0.00080712 -0.0022188 -0.001976 -0.00022727 -0.00040717 0.00013792 -0.0013508 0.0024417 -0.0051532 -0.0022654 0.0015015 -0.0013489 0.0025161 -0.0015827 -0.001479 0.0039254 -0.00036917 0.0023372 -0.0024385 -0.0013363 -0.001425 -0.0038773 0.0010278 -0.00050517 -0.0011549 0.00038248 0.00058039 -0.00034756 0.0016169 -0.0019627 0.0030163 0.00099412 0.00152 0.0010128 0.0037132 0.0024084 0.0034196 -0.0016773 0.0015856 -0.0020911 -0.0016222 0.0038732 0.0029309 0.0013016 0.00044615 -0.0021568 0.0027777 0.0039133 0.0035713 -0.0032111 -0.003095 -0.00083576 -0.0017854 0.0021491 0.002111 0.00067124 -0.0015706 -0.00099314 0.0016264 0.00031907 -0.00070157 
build -0.0038832 -0.0042395 0.0009635 0.0057831 0.0023267 -0.0062294 -0.0052096 -0.0018205 0.0030482 -0.0048946 -0.0069901 0.00023601 -0.0025912 0.0011062 0.0050506 0.0029957 0.004323 0.0017624 0.0060912 -0.0019816 -0.0046208 0.0012631 0.0010383 -0.00089337 0.0027281 0.00042561 0.0062286 -0.0030705 0.0045628 -0.001567 4.7304e-05 -0.0029694 0.00081551 0.0037599 -0.0061385 0.0014852 -0.0012821 0.0011699 0.0010087 0.0015856 -0.002148 0.0029863 -0.000478 0.0043849 0.0073877 -0.003408 -0.00034804 0.0084283 0.001576 0.0003507 -0.0054693 -0.00053221 0.00028797 -0.0006125 -0.004473 0.0011588 7.4284e-05 0.00066606 -0.0047791 -0.0017465 -0.0051709 -0.0015203 -0.001615 -0.0046937 -0.00168 0.00054076 0.0040264 0.0036015 -0.0069089 0.0014644 0.001113 -0.0017895 -0.0014868 0.00071606 0.0016571 0.003399 0.00067308 0.0011109 -0.0017083 -0.0043928 -0.0027646 -0.0017477 -0.007421 0.0010955 0.0047679 -0.0028092 0.000285 -0.0031227 0.001968 -0.0048362 -0.002449 -0.0051239 -0.0019042 -0.0028517 0.004917 0.0015711 -0.0027357 -0.0025329 -0.004539 0.0020991 
and 0.020679 -0.009076 -0.0030821 0.0074068 0.0009255 0.0061776 -0.0090273 -0.0098855 -0.0085429 -0.015305 -0.014593 0.013226 0.0040911 -0.00097184 -0.0031041 0.0046759 -0.005715 -0.0062795 0.0070461 -0.010246 -0.0032831 -0.0065374 0.0033728 0.00095414 -0.00047789 0.0057957 0.005303 -0.0023131 -0.00094177 -0.0095501 -0.0094533 -0.0041336 0.0006313 0.0028461 0.00086941 -0.00056393 -0.0037506 0.00709 0.0029479 0.0046337 -0.0010909 0.00033019 -0.0090226 0.0014921 0.023564 0.0019643 0.0041542 0.00085368 -0.0005946 0.0027073 -0.011111 0.0040094 0.0027412 0.0013231 -0.0031477 -0.00077386 -0.0029047 0.0046672 0.0021674 -0.017518 -0.010914 0.0029402 0.00095191 -0.0082266 0.0020511 -0.0099089 -0.0055467 0.0049283 -0.013029 0.00012659 -3.4767e-05 -0.0029903 0.0082275 -0.0099873 -0.00018944 0.0078221 -0.0012342 0.0023523 -0.0016452 -0.017439 -0.00047351 0.011458 -0.0034022 0.0093751 0.011375 0.0021942 -0.015887 -0.01045 -0.011432 -0.0079112 -0.0081226 0.0028308 -0.0038775 -0.014823 0.0042599 0.00027758 -0.0036604 -0.0063036 -0.012801 -0.014316 
- 0.0077226 0.0023502 0.0072812 -0.0045453 -0.0067762 0.0086787 0.0065777 0.0017031 0.0015353 -0.0021695 -0.0019984 0.001873 -0.0038369 -0.0024133 -0.0061324 0.00020549 1.3351e-05 -0.0010958 0.0012278 0.0015414 0.0092468 0.0078642 0.0068473 -0.0056946 -0.0033604 -0.0019288 -0.0052898 -0.0010082 0.0036296 0.009246 0.00040521 -0.0064587 -0.0021609 -0.0025966 0.0025921 0.006027 0.00012513 0.0070188 0.0027328 0.0018675 0.0029044 -0.0029637 0.0081205 0.0019395 0.0007627 -0.0083803 0.0032154 -0.0092939 -0.0036694 -0.0029899 0.010005 0.0032108 -0.0061622 0.00066257 -0.0010565 0.0034937 -0.0028039 -0.0018415 0.0039513 0.00036154 0.0026344 -0.00095724 -0.0066549 -0.0042482 -0.0054147 -0.00080512 -0.0036727 0.0053445 -0.0029572 0.0066286 -0.0093767 -0.0012964 -0.0049523 0.0042202 0.00042668 0.0031185 0.0030051 -0.0088605 0.00029515 0.0018221 -8.0168e-05 0.0016914 0.00434 -0.0046616 -0.0026606 -0.006391 0.010869 -0.00071947 -0.00090099 0.0055207 -0.0032169 -0.00357 0.0050153 -0.0033036 -0.0091889 -0.0059343 -0.0053402 0.0023455 0.0029368 -0.0074714 
you -0.00045927 -0.01095 -0.0033588 0.0069213 -0.0090805 0.0034837 -0.010603 -0.014556 5.0061e-05 -0.014542 -0.0093309 0.0064922 -0.0014832 0.0079326 0.0040391 0.0018577 -0.0021183 -0.0034427 0.0033891 -0.0041915 -0.0078856 -0.0038633 0.00060434 0.0013125 0.0005832 0.0048909 0.0012702 0.0032286 0.0032675 -0.0057537 -0.0055487 -0.0020679 -0.00397 0.011767 -0.0059826 0.0063353 -0.0011741 -0.0037595 0.015868 -0.0017283 -0.0010957 0.0040161 -0.0071585 0.0099297 0.023727 0.0026885 0.0043452 0.011264 -0.0020833 0.0056303 -0.015825 -0.0030615 0.008544 -0.0096161 -0.012582 -0.0065608 -0.0050819 0.0031012 0.0057065 -0.014327 -0.014523 -0.0018595 0.0053163 -0.015813 0.0013208 -0.0078817 -0.0055583 -0.0027993 -0.016343 0.0015797 0.0039257 -0.002388 -0.00018148 -0.0020541 -0.0015409 -0.0046997 0.0024793 0.0047159 -0.0061126 -0.013473 -0.0044553 0.008781 -0.0083991 0.0071753 -0.00055849 -0.0045095 -4.9256e-05 -0.0097624 -0.0069274 -0.010631 -0.010035 0.0012952 -0.015234 -0.0083039 -0.0034797 -0.0051943 9.6205e-05 0.0033145 -0.005777 -0.0021504 
go 0.00042305 0.0026184 0.0067547 0.0012451 0.0040311 -0.00093388 0.0032903 0.0023416 -0.0085057 0.0048119 0.005183 -0.0055651 -0.0084721 -0.00050313 0.0065808 0.00037316 0.0077266 0.0046151 0.0036923 0.0049936 0.00078237 0.002063 0.004443 0.00040171 -0.0036052 -0.0063232 0.0051099 0.0039966 -0.00018597 0.01312 0.012499 0.00096743 0.0019532 -0.0068511 -0.0014564 0.0026929 0.0043793 0.0032616 -0.0072451 0.0030656 -0.0047846 -0.0031178 0.00094947 0.0060684 -0.0071168 -0.0077902 -0.0026939 0.00046137 -0.0033499 0.0021378 0.0030929 0.0025251 -0.010177 0.0073349 0.0008782 0.0063483 -0.00044211 -0.0046054 -0.0095059 0.0085373 0.0037931 -0.0043807 0.0040553 0.014762 -0.0027821 8.7087e-05 0.0020865 -0.0020766 0.0028619 -0.003432 0.0012044 -0.0036003 -0.0042982 0.0095636 0.0067773 0.0067679 -0.0015894 0.0031265 0.001069 0.014103 0.0045695 -0.0026612 -0.0042272 -0.0077431 -0.0057228 0.0010584 -0.0041808 0.0019828 0.0023156 0.0089899 -0.0021247 -0.0022512 0.00050962 0.015393 -0.0016826 -0.0018287 -0.0075255 0.00077344 0.01202 -0.0030716 
can -0.00055031 -0.00047437 -0.004883 0.0032115 -0.0032476 0.0017555 -0.0034681 -0.0072633 0.0026245 -0.011247 -0.012059 0.0074291 0.0016481 0.0074662 0.002469 0.00094969 0.0005066 0.00054384 0.00047022 -0.0068165 -0.0048328 -0.0030094 -0.0017126 -0.0042022 0.00052701 0.0019774 -0.0024193 0.0023276 0.0014881 -0.004365 -0.0014027 -0.0022738 -0.0018177 0.0036424 -0.0073876 0.0007009 -0.0036646 -0.0023591 0.0051566 -0.001959 -0.0049072 0.0021088 -0.0065558 0.0095938 0.016629 0.0044278 0.0024847 0.010832 -0.00033004 0.0051 -0.011984 0.0010951 0.003783 -0.0053539 -0.010112 -0.0025756 -0.0034851 0.0051167 -0.00064231 -0.010256 -0.013676 0.0043215 -0.0015836 -0.01191 0.0030647 -0.0078982 -0.0049265 0.00067271 -0.0065059 0.00049509 3.4879e-06 -0.0036845 0.0021568 -0.0023344 -0.0036799 -0.003723 0.0014578 0.0010211 0.003001 -0.0093295 0.00056721 0.0028515 -0.0031193 0.00045325 0.003362 -0.0017878 0.00054912 -0.0050769 -0.0061984 -0.0030003 -0.0060257 0.00061508 -0.0067051 -0.011326 0.0049258 -0.00034453 -0.0015854 0.00010552 -0.013883 0.0003713 
Windows -0.00026187 -0.0053633 -0.0051421 0.0056255 -0.0023669 0.0009116 -0.0071602 -0.0030375 -0.00060253 -0.0072921 -0.006929 0.0033041 0.0014376 0.0032814 -0.00030335 0.0001334 -0.0021234 -0.0025296 0.0032809 -0.0049705 -0.0032158 -0.00055216 0.002767 0.0010651 6.5915e-05 0.0033459 0.0049147 -0.0028382 0.0021665 -0.0036053 -0.0024372 -0.0026901 -0.0027996 0.0034221 -0.0027849 0.00092296 -0.0024225 -0.00013409 0.0025347 -0.0019736 0.0012775 -0.0010093 -0.0046544 0.0015577 0.0087576 -0.00079103 0.0045452 0.0039169 -0.00027405 -0.0024174 -0.0082982 -0.00014634 0.0074121 -0.0030442 -0.0017035 -0.0051628 -0.0005112 0.0033935 0.0026971 -0.0045159 -0.0065795 0.00065405 0.00071578 -0.0072923 0.0031599 0.00095043 -0.0019848 -0.00070781 -0.0073765 0.0011953 0.00083126 -0.00066166 0.0047676 -0.0038543 0.00088451 -0.0049801 0.00081888 0.003091 0.00027453 -0.0044774 -0.0022876 0.0052564 -0.0044312 0.0049009 0.0055241 -0.0004558 -0.0023588 -0.005901 -0.0031314 -0.0042995 -0.0032414 -0.0020061 -0.0025652 -0.0054922 0.0025922 0.002558 0.0041576 -0.00051521 -0.0035086 -0.0010481 
for 0.007962 0.0032043 -0.0043191 -0.0043005 0.0017927 0.0057971 -0.0051208 -0.0063649 0.00062826 -0.0058587 -0.0089835 0.0014276 0.0012966 -0.0011834 -0.003377 -0.00056683 -0.0042704 -9.7453e-06 0.00076276 0.00013415 -0.0033581 0.0010941 -0.0047616 0.0059787 -0.0045002 0.0042307 -0.0098169 -0.0012515 0.0032023 -0.0074184 0.0018174 0.0016652 -5.9849e-05 -0.0024735 0.0034262 0.0029059 -0.00091637 0.0040109 0.0081234 -0.0037609 -0.0042959 0.0016864 0.0044479 -0.0017665 0.012291 0.0059656 0.0062249 0.006984 0.0014678 0.0014332 -0.0034805 -0.00081654 0.0058444 -0.0066831 -0.0044162 0.00041279 -0.0031536 0.0060072 0.0019513 -0.0054847 -0.0036584 0.0058818 0.0012289 -0.0029438 0.0034258 -0.0047642 0.0019085 -8.6962e-05 -0.0070439 0.0030088 0.0052846 -0.0034675 0.0070822 0.0032494 -0.0017875 -0.00044437 0.00089674 -0.00313 -0.002081 -0.0029069 0.00041412 0.0048645 -0.0033893 0.0073289 0.0027897 0.00032452 0.0017041 0.0021909 -0.0061255 -0.010781 -0.0070303 0.00036214 -0.010512 -0.0027251 0.0038583 0.0025997 -0.0036486 -0.0021666 -0.0024045 -6.7162e-05 
or 0.0030796 0.0025494 -0.0080861 -0.00074057 5.714e-05 0.0070647 -0.010323 -0.010536 0.0032702 -0.0072384 -0.0096016 0.0096426 0.012606 0.0044662 0.00081227 -0.00087109 0.0055854 0.000553 -0.0039807 -0.005145 -0.00044111 0.0043258 0.00048846 -0.002859 0.00038287 -0.003001 0.00031611 0.00017958 0.0062321 -0.0050484 -0.0038005 -0.0019404 0.0013444 0.0010464 -0.010783 -0.00058266 0.0015842 -0.0038932 0.0024343 -0.001152 -0.001043 0.0040489 -0.0023362 0.005192 0.011626 -0.001297 0.0029669 0.0053466 0.0058355 0.002121 -0.0038344 -0.0077505 -0.0006061 -0.00158 -0.012237 -0.0053667 -0.0032272 -0.003325 0.00077256 -0.01014 -0.011037 0.0087703 0.0018508 -0.002628 -0.00085504 -0.00471 -0.0073593 -0.0010193 -0.0021134 -0.0046717 0.0032558 0.0011728 0.0040264 -0.0070627 -0.0023105 -0.0028413 0.0012753 4.8488e-05 0.0052151 -0.010403 0.00016233 0.004963 0.0017634 0.00045979 0.003527 -0.0049184 -0.0012627 -0.0061406 -0.00666 0.00062862 -0.0017275 -0.00293 -0.0031229 -0.014587 0.00044659 -0.003799 0.00079201 -0.0004198 -0.0079429 0.00081245 
a 0.0010056 -0.011511 -0.00072717 0.016324 -0.011178 -0.00041081 -0.0075704 -0.010773 0.0046085 -0.013237 -0.0058826 0.0058715 -0.014452 0.0032206 0.0016901 0.0038142 -0.00032004 -0.0029769 0.001977 -0.011657 -0.0064989 -0.0011534 -0.0076565 0.0048101 0.011051 0.0010076 0.0095353 0.0045082 0.0091475 0.0011446 0.0041762 8.5272e-05 -0.0058787 0.0019987 -0.0016375 0.012391 -0.013005 -0.0087562 0.01065 -0.010794 -0.00010282 0.006313 -0.0014053 0.0048461 0.019115 -0.0017446 0.00077198 0.013367 0.010192 -0.00763 -0.012112 0.0011926 0.0014525 -0.0053329 -0.014541 -0.0060677 -0.0095561 0.0021035 -0.0066753 -0.00034035 -0.011647 0.005351 0.00051309 -0.0071215 0.0098204 -0.0093522 -0.0074743 0.0041104 -0.012024 -0.0033578 -9.8462e-05 0.0073135 0.0092517 0.0012151 0.00066795 -0.0099923 0.006583 0.0018415 -0.0053602 -0.0097696 -0.0006199 0.014813 -0.016199 0.017546 0.0084884 -0.0018542 0.0017179 -0.017956 -0.012447 -0.010012 -0.01016 0.0049196 -0.0098435 -0.0126 0.00014052 0.0072869 0.002441 0.0014559 0.0041197 -0.0041985 
#### -0.0041252 0.00045061 0.0019764 -0.00050737 -0.0064788 -0.0029268 0.0020889 -0.0017327 0.0079574 0.0045106 0.006293 0.00012337 -0.0023034 -0.0026834 -0.0040961 -0.0050378 -0.0021928 -0.0018032 -0.0010018 0.006535 -0.00056021 -0.00027156 -0.00078223 -0.0051607 0.0022997 -0.0003623 -0.0018252 -0.0025547 -0.0048237 0.0013188 0.00084533 0.0047134 0.00067788 0.00044432 0.00073939 -0.0017391 -0.0019351 -0.0091031 -0.0030862 -0.0030906 -0.002186 0.00051383 0.0024535 0.0016087 -0.0016904 0.0071696 -0.0018922 -0.0029861 0.00092438 -0.0022827 0.0046236 0.0056301 0.0017264 -0.0040422 0.0055585 -0.0029707 -0.0031918 0.0015111 0.001831 0.0011678 0.0023518 -0.0020711 -0.00019642 -0.0015937 0.0016821 0.0035831 0.0009591 -0.00080926 0.0049811 0.0023009 0.0018159 0.0057531 -0.0043142 0.00059936 -0.0037632 -0.0015533 0.0013699 0.0046969 -0.005075 0.002318 0.0031517 -0.003284 0.004126 -0.00050111 -0.0028213 -0.0023705 0.00375 0.0011454 -0.0025904 -0.00022338 -0.0020865 0.00079163 -0.00076942 0.0021644 -0.0022007 -0.0086924 0.0023502 0.0033844 0.0050152 0.0012998 
generate -0.00082845 0.0030889 0.006157 -0.0020637 0.0046298 -0.0001495 0.0050199 0.0034712 -0.0027276 0.0063223 0.0068754 -0.0047742 -0.0032164 -0.0018028 0.005343 -0.0013596 0.0040084 -0.0010202 -0.0011249 0.005071 0.00024878 0.00477 -0.00066624 0.0013214 0.0024711 -0.0016281 0.0032708 0.0052839 -0.0013869 0.0063251 0.0049992 0.0032914 0.0005817 -0.0015941 0.0005662 -0.0024034 0.0065603 0.00059327 -0.0056333 0.0048227 0.0011729 -0.00060959 0.0036197 -8.5334e-05 -0.0089363 -0.0020856 -0.0024511 -0.003029 -0.0011854 0.0023063 0.010957 0.0037404 -0.00036047 0.00089127 0.0062079 0.00116 0.00093117 -0.0039484 -0.0055231 0.0028072 0.0091298 -0.0019798 0.0030852 0.012076 0.0014922 0.00083717 0.0013155 -0.0028379 0.0027108 -0.0030419 0.00071889 -0.0012755 -0.0034255 0.0077366 0.0039215 0.0059931 4.0353e-05 0.0010699 -0.0018092 0.011381 0.00077617 -0.0052275 -0.0030698 0.0014204 -0.0055722 -0.00083384 -0.0032253 0.0040056 0.0047752 0.0059863 0.0024988 0.00051531 0.0044953 0.0084872 -0.0020442 0.0010454 -0.0030854 0.0002967 0.010639 0.00073577 
install -3.5145e-05 -0.006798 -0.0013499 0.0027196 -0.001653 0.0015893 -0.0088077 -0.0052142 0.0025829 -0.0075093 -0.0070751 0.0033612 -0.00088636 0.0053129 -5.4777e-05 0.0021061 -0.0015876 -0.0005338 0.0004499 -0.0057301 -0.0032512 0.0005249 0.0023297 0.00025979 0.0012476 0.0024163 0.0017129 -0.0015909 0.0019142 -0.0010691 -0.0028019 -0.0026983 -0.0038153 0.0022234 -0.0072652 0.0021882 -0.00027758 -0.0054618 0.0064989 -0.0065067 -0.0016703 0.0036119 -0.0018732 0.0021761 0.011129 0.0030681 0.0042775 0.0050613 0.0038132 -0.00083146 -0.0043487 0.0010545 0.0042852 -0.0026279 -0.0034316 -0.0066664 -0.0027893 -0.0019165 0.0024911 -0.0064514 -0.0086924 0.0020382 0.00097061 -0.0081849 0.00096129 -0.0022724 -0.002951 0.001873 -0.0071433 -0.0014605 0.001865 0.0016537 0.0028175 -0.004756 0.0024536 -0.0035318 0.0027875 0.0052429 -0.0014225 -0.006312 -0.0011049 0.0060559 -0.0014835 0.0020119 0.0042297 2.9168e-05 -0.003358 -0.0055998 -0.0021892 -0.0074236 -0.0046733 -0.00023972 -0.00155 -0.0057202 0.0021919 -0.00076641 0.0036788 -0.00018247 -0.0043317 -0.0014245 
Linux -0.0011854 -1.0062e-05 -1.6527e-06 0.0016732 -0.00021685 -0.0019547 -4.2861e-05 0.0053908 0.0031097 -0.0028176 0.0025619 0.0010057 0.00066345 -0.0025588 0.00035022 0.00076022 0.0011511 0.0030711 0.0021898 -0.0003004 -0.00068535 0.00081206 -0.0035447 0.00072196 0.0019208 0.0011614 0.0040073 0.0007278 0.0001035 -0.0023636 0.003526 -0.001795 0.0012838 0.0007757 -0.0017129 -0.00091435 -0.0021154 0.0020649 0.0005043 0.0017067 -0.0002571 -0.00088491 -0.0021749 0.004623 5.4172e-05 0.0016362 -0.0041448 0.0011593 0.0020766 -0.00089324 -0.0009919 -0.0022238 0.0042136 -0.00073716 0.0035867 -0.0075066 0.002548 0.0012189 0.0011873 0.0024191 -0.0015404 -0.0014688 -0.0010927 -0.0018086 0.001826 0.005788 -0.0010578 0.00069693 0.0013438 -0.00088332 -0.003414 0.0012296 -0.001907 -0.00094711 0.0013425 -0.0032547 -0.00069792 -0.00072867 0.0012922 -0.0029484 0.0014703 -0.0029278 -0.0047564 -0.00012047 0.00077147 -0.0023402 0.0031877 -0.0028334 0.0039015 0.002186 -0.00060281 -0.000698 0.00042713 -0.00099673 -0.00066666 0.0019821 0.0025921 0.00029112 -0.002555 0.0033424 
as 0.013069 0.0011025 -0.0001893 -0.006984 0.017122 -0.0042226 -0.00079957 0.0037426 0.0075892 -0.01254 -0.017295 -0.011293 0.0049951 0.0033634 0.0033807 0.002952 -0.0080974 0.0057206 0.006743 -0.00023887 -0.0032848 -0.0028311 -0.0039114 0.0022728 -0.020562 -0.0002877 0.00025684 -0.0086929 -0.0024226 -0.019517 -0.0080617 -0.0066076 0.013968 -0.0014628 0.003142 -0.002628 -0.0019777 0.0098564 -0.000191 0.002533 -0.0018792 -0.003694 0.011925 0.00058136 -0.00025922 -0.0030528 -0.0027386 0.013368 -0.0048028 -0.004953 0.003172 0.0010656 -0.012462 0.0099081 -0.012049 0.012345 -9.1036e-05 -0.0018358 0.013954 -0.0041793 -0.001746 -0.0071112 -0.0069375 0.0088614 -0.012321 0.011442 0.0098695 0.0035208 0.0068086 -0.0026284 0.0044011 -0.0075539 0.0092434 -0.0077767 0.0017939 0.0072484 -0.0093154 -0.0097917 0.0066391 -0.015748 0.0021793 -0.0084267 0.0095247 -0.0095884 0.005532 0.0059285 -0.0013145 0.0099154 0.010694 0.0012548 -0.0094573 0.0030687 0.012745 -0.0019304 0.012195 0.0056731 -0.0078694 0.00051953 -0.013536 -0.0076059 
an 0.010911 -0.016245 -0.0038284 0.011589 -0.0059196 0.0066394 -0.012861 -0.0128 -0.0041141 -0.016788 -0.023451 0.0084897 0.00021889 0.0084866 0.001363 0.0078869 -0.0041466 -0.01046 -0.00061232 -0.012213 -0.0026994 -0.00019755 0.0047269 0.0027545 -0.0059785 0.0072559 -0.0022123 0.00075541 0.0062763 -0.0095853 -0.01237 -0.0068043 0.00019558 0.015395 -0.0061681 0.0064825 -0.011188 0.0037868 0.0097124 -0.003345 -0.0038921 0.00020095 -0.0053266 0.0086779 0.02768 0.0088743 0.011576 0.015355 0.0033734 0.0042637 -0.014631 0.00095044 0.014776 -0.0087241 -0.016609 -0.0070796 -0.0022844 -0.00042785 0.0024814 -0.017532 -0.019533 0.0039825 -0.0058701 -0.018248 0.0040989 -0.01328 -0.0019069 0.0037924 -0.016719 0.0013408 0.0062685 -0.0018218 0.0067106 -0.0064211 -0.0072917 0.0010524 0.0015074 0.0059205 -0.00095844 -0.012522 -0.0045975 0.013771 -0.012361 0.0065952 0.0049589 -0.0042356 -0.0057568 -0.014229 -0.0056277 -0.012343 -0.0068989 -0.0048422 -0.012214 -0.019048 0.0044063 4.3166e-05 0.00077429 -0.0045968 -0.015421 -5.8089e-05 
will -0.0022569 -0.010235 -0.00016928 0.0091251 -0.0033758 0.0018078 -0.010666 -0.0070945 0.0022143 -0.012402 -0.012517 0.0070378 0.0024227 0.0077761 0.0035841 0.0056371 -0.0010162 -0.0033355 0.0028154 -0.0034623 -0.0056002 -0.00049376 0.0024913 0.0046415 0.0051822 0.0023565 0.0014248 -0.0050651 0.0031252 -0.0048332 -0.0016807 -0.00011004 -0.0004522 0.0054408 -0.010795 0.0024453 -0.0015254 -0.0039458 0.0089488 -0.0051493 -0.00035728 0.0050549 -0.0054738 0.0039482 0.015379 0.004164 0.0039938 0.0057537 0.0064622 -0.0029334 -0.009287 0.0011424 0.007786 -0.0039854 -0.00064737 -0.00919 -0.0066012 0.00066358 0.00070109 -0.0090184 -0.012893 -0.0020111 -0.0018463 -0.0078557 0.0029793 0.00044005 -0.0023605 0.0027433 -0.008538 -0.0051594 0.00042964 0.0052503 -0.0033849 -0.0075472 -8.7029e-05 -0.0031813 0.0023808 0.0074388 -0.0025584 -0.0080964 -0.0016731 0.0046076 -0.0067837 0.00098769 0.0033289 -0.0017048 -0.0047546 -0.011054 -0.002785 -0.0088611 -0.0074995 -0.0026172 -0.0046729 -0.0066192 0.0083598 -7.08e-05 0.0062298 0.0011584 -0.010473 0.0021918 
of 0.0019305 -0.0061387 -0.0057945 0.0043134 0.0030653 0.0015005 -0.012453 -0.0032233 -0.0020798 -0.0078206 -0.0065118 0.0099396 0.0045529 0.00937 0.001148 0.0062806 0.0015981 -0.00046276 0.0042716 -0.0054684 -0.00072957 -0.0073733 0.0056901 -0.0039741 -0.0011133 -0.0017875 0.010377 -0.0079069 -0.0044143 -0.0086972 -0.0023006 -0.00033195 0.0017461 0.0073517 -0.010454 0.00045149 -0.00018486 -0.0067543 0.00025556 -0.0030697 -0.0013808 0.013393 -0.0048551 0.00097281 0.018161 -0.00013562 0.00539 0.0096308 -0.00025009 -0.0027462 -0.011102 -0.00048633 -0.00082292 -0.0030725 -0.011389 -0.012657 -0.0020664 -0.0018557 -0.0078478 -0.011687 -0.011496 0.0065592 0.0025346 -0.011546 -0.0047806 -0.013232 -0.005996 -0.0002919 -0.0049958 -0.00039127 0.0036517 0.0022894 0.0013818 -0.0078226 0.0016106 0.0055074 -0.0017329 0.0064847 -0.00050308 -0.010339 0.00020248 -0.0023478 -0.0041764 -0.0037854 0.0059143 -0.0021765 -0.0056555 -0.0057951 -0.0055648 -0.0031157 -0.0014609 0.0035525 -0.010794 -0.0155 0.010769 -0.0071603 0.00016281 0.0034994 -0.0092896 -0.0023696 
ROCm 0.0035122 0.00036012 0.00076174 0.002821 0.0021591 0.0018791 -0.0062501 -0.0028204 -0.00090604 -0.0038017 -0.011357 0.0029386 0.0022171 0.0033143 -0.0022071 0.0020567 -0.002851 -0.00010909 0.0044929 8.9665e-05 -0.002638 -7.4544e-05 -0.0047785 0.0020749 -0.0045239 0.0021522 -0.0029599 -0.0015225 0.00017969 -0.0096618 -0.00071472 -0.0029141 0.0014869 0.0015025 -0.0012066 0.002989 0.00095801 0.0014814 0.00039258 0.0038233 -0.0056452 0.0020826 0.00097714 0.0051396 0.011978 0.0016296 0.0033069 0.0042998 0.0024115 -0.001165 -0.0058969 0.0011519 -0.00023603 0.00029302 -0.00036839 -0.0059149 0.00089735 0.0032626 0.0019347 -0.002458 -0.0074277 0.0013224 -0.0014026 -0.0051239 -0.0029195 -0.0027241 -0.00039734 0.0028856 -0.0032815 0.0026024 -0.0016468 -0.0023148 0.0059059 -0.0050945 -0.001797 -0.00056977 0.00074799 0.00097983 -0.00042719 -0.0086188 -0.0010366 0.0036078 0.0012386 0.0016941 -0.0006654 0.00067976 -0.0013547 -0.005354 -0.00018946 -0.0048953 -0.0036243 -0.00073811 -0.0054158 -0.010524 0.0088458 -0.0024834 0.00054212 -0.00045004 -0.0079336 0.00049077 
location -0.00021628 -0.0025077 -0.0043017 0.0015849 -0.0048415 0.0069645 -0.0047564 -0.0089426 -0.00045453 -0.0066818 -0.0061342 0.0039264 -0.0035904 0.0049589 0.0020916 0.004127 0.0028264 0.00040168 -0.00053448 -0.0042579 -0.00047741 -0.0011437 0.00060804 0.00044051 -0.001007 0.003222 0.0046301 -0.0020545 -0.00029683 -0.0053593 -0.0045271 -0.0029253 -0.0039268 0.0075178 -0.0021857 0.0015525 -0.0044417 0.00072897 0.0046214 0.0025392 -0.0001399 0.0033206 -0.00509 0.0042334 0.0086217 0.0015805 0.0028587 0.0069309 -0.0010556 0.00053688 -0.007998 -0.00037186 0.0042543 -0.002968 -0.009067 -0.001617 -0.0011038 -0.0029782 -0.0011814 -0.0071118 -0.0074637 0.00088301 0.0013444 -0.010027 -0.0015783 -0.0050229 -0.0046592 0.0015089 -0.0037942 0.00066719 -0.0011699 -0.0034458 -5.1253e-05 -0.0049084 0.00080261 -0.00065059 4.0038e-05 -0.0015802 0.0039161 -0.0076658 0.0012775 0.0042372 -0.0040381 -0.0030784 0.0020582 -0.0013351 -0.00019882 -0.0074002 -0.0024596 -0.00072692 -0.0027165 0.0019258 -0.0033563 -0.011338 0.0039874 -0.0029246 0.002181 0.0072895 -0.0065814 0.001464 
./... -0.0042279 0.0059369 0.0033227 0.00028322 0.0027526 -0.00074208 0.0050579 0.0078712 -0.0010757 0.012132 0.0081701 -0.0052421 -0.0014267 -0.0041477 0.004788 0.0021852 -0.00055168 0.0035251 -0.002448 0.0035027 0.0019018 0.0029192 0.004491 -0.0038498 0.0013152 -0.0059503 0.002965 0.0061596 0.00094249 0.0084387 0.0032249 -0.0016491 0.0012594 -0.0043624 -0.0019802 0.00086996 -0.0014196 -0.0043219 -0.004095 -0.0045986 0.0042107 0.0029815 0.004835 -0.0038071 -0.016243 -0.0047579 0.0013544 -0.0082536 -0.001883 -0.0036788 0.0059959 0.0030845 -0.0056661 0.00030554 -9.5184e-05 0.0059835 0.0054734 -0.0050269 -0.0046902 0.0050827 0.0031372 0.0050666 0.0012604 0.0091342 0.0024373 5.0055e-05 0.0066273 0.00024289 0.0026302 -0.00084091 -0.0026999 0.0035022 -0.0060212 0.0023677 0.0017201 -0.0036751 0.0057275 0.0010711 0.0039083 0.014471 -0.0046848 -0.0042806 -0.0025939 -0.0013163 0.0014004 0.0031876 -0.0023128 0.0075431 -0.0018752 0.0066667 0.010858 0.00375 0.0048208 0.0088233 -0.0045718 0.0023059 -0.0022625 -0.0045859 0.010833 0.00090601 
your 0.0033187 -0.0049678 -0.0039 0.004646 -0.0092113 0.0032323 -0.0097566 -0.010893 0.0047289 -0.0095522 -0.0067259 0.0067191 -0.0035237 0.0046682 0.0065333 0.0037294 -0.0032825 -0.0026252 0.0034234 -0.0058234 -0.0014164 -0.00028591 -0.0012704 -0.0019477 0.0024059 0.0019213 0.006195 -0.0047448 -0.001766 -0.0050472 -0.00089485 0.0017931 -0.0058015 0.0037019 -0.01057 0.0034815 -0.0077217 -0.0041543 0.010639 6.5726e-05 0.0027607 0.0081265 -0.007536 0.0031913 0.012942 0.00038039 -0.00013371 0.0052834 -0.00036412 -0.0048939 -0.0080111 -0.0034649 0.008581 -0.0053528 -0.0085035 -0.0073055 -0.0026294 0.0021412 -0.0034108 -0.010168 -0.010404 -0.0019967 0.003167 -0.0074211 0.0015462 -0.0054513 -0.0060144 0.0033276 -0.010077 0.00067932 0.0019977 0.00059681 -0.0028151 -0.0043874 -0.00073823 -0.00093767 0.0054306 0.0078726 -0.0016195 -0.0097719 -0.0073612 0.0044071 -0.00652 0.0026328 0.0012065 -0.0061161 -0.0032135 -0.012081 -0.0047633 -0.006653 -0.01023 0.0023241 -0.0096051 -0.0090669 0.0021843 -0.010595 0.003369 0.0052356 -0.0051008 -0.0060262 
development 0.007962 -0.0019047 -0.00076852 -0.0014531 0.0038947 0.0023782 -0.0019252 -0.0033022 0.0017398 -0.0081897 -0.007598 0.0018284 0.0010017 0.0012621 -0.0031919 0.00094559 -0.0049651 0.00068769 0.0054234 -0.0021735 -0.0041254 -0.0013685 -0.0002019 0.00087478 -0.003314 0.0014417 -0.0011882 -0.0024019 -0.0011828 -0.0063514 -0.0049121 -0.0026548 0.00089501 0.00015751 0.001611 0.0013767 -0.0026575 0.0003458 0.0013706 -0.00089037 -0.0019518 0.00043988 0.00059131 0.00091854 0.007442 0.002801 0.0030515 0.0060131 -0.00031974 0.00033273 -0.004356 0.0041228 -0.0014863 0.0012347 -0.0043178 -0.0013616 -0.0010662 0.0027306 0.0030777 -0.0056813 -0.0041038 -0.0015799 0.00077622 -0.0029258 -3.4227e-05 -0.00046314 -0.00031327 0.0024587 -0.0035706 -0.00017484 0.0011838 -0.0019628 0.0052041 -0.001234 0.0015601 7.1066e-05 -0.0024809 -0.0017167 -0.00083014 -0.0063905 -0.001601 0.003438 0.0001415 0.0045518 0.0036413 0.002289 -0.0028062 0.00094443 -0.002937 -0.0030711 -0.0049613 0.0026889 -0.0013213 -0.0060825 0.0037871 0.0015762 -0.0043944 -0.0028758 -0.0082136 -0.0045614 
is -0.0014457 -0.018292 -0.0067306 0.014801 -0.010841 -0.00036826 -0.020733 -0.015613 0.011697 -0.020472 -0.019045 0.010582 -0.012244 0.015145 -0.0030915 -0.0004823 -0.0025158 -0.0067999 0.0052929 -0.0096864 -0.0029349 -7.5943e-05 -0.0036951 0.001881 0.0034788 0.0019247 -0.00080535 -0.0077697 0.0048505 -0.0041262 -0.0092775 -0.00066959 -0.0081566 0.009025 -0.0011155 0.011462 -0.0045072 -0.012705 0.01951 -0.010515 -0.0073277 0.0042073 -0.0077294 0.00024513 0.031775 0.0077978 0.0091334 0.018758 0.0074512 0.00031968 -0.0061109 0.0045706 0.0089914 -0.0099536 -0.017389 -0.015828 -0.016323 0.0038796 0.0038724 -0.0068576 -0.012133 0.0049443 -0.0011615 -0.022543 0.010662 0.0013445 -0.0034567 0.008322 -0.016764 -0.0018248 0.015013 0.0029654 0.0060254 -0.003156 0.0012087 -0.0043925 0.0081818 0.006893 -0.011016 -0.0095634 -0.0038059 0.015906 -0.0085543 0.018197 0.010337 -0.0059576 -0.0036102 -0.011984 -0.0089161 -0.020025 -0.021185 -0.0057397 -0.010829 -0.0032412 0.0056532 0.0015558 -0.00040427 0.0027491 -0.010723 -0.007542 
. -0.0034653 0.0041995 0.010079 0.0047098 -0.0065168 0.00068107 -0.0062607 0.0090914 -0.0048514 0.010149 0.0098452 0.00080884 -0.0040072 -0.0065557 0.013789 0.0030934 0.0026948 0.0042539 -3.2683e-05 -0.0020268 -0.0018088 -0.0025028 0.0038452 -0.0083235 -0.002759 -0.0038545 0.012151 0.0099529 -0.0012146 0.0086002 0.011211 0.0023506 0.0027405 0.0096549 -0.0031206 -0.005288 0.0034486 0.0027127 0.0048169 -0.004033 0.0096556 -0.0012889 -0.0010457 -0.0053075 -0.0043038 -0.0035244 0.0032877 -0.0088138 0.0084684 -0.003381 0.014545 -0.0093416 0.00046348 0.0033169 0.0041681 0.0024456 -0.0016511 -0.0087781 -0.0018381 -0.0053908 0.01111 -0.0017345 -0.0030847 0.0099514 0.0065415 -0.0084303 -0.0070208 0.0099347 -0.0015306 -0.0028601 0.0073868 0.0026039 -0.0098984 0.00498 -0.0093096 0.003354 0.013915 0.0092677 -0.0069372 0.014173 -0.0007485 -0.01193 -0.0070146 -0.003538 -0.0050988 -0.0017905 -0.0034958 0.0022285 -0.014056 0.0035552 0.0048825 -0.001068 0.0036677 0.011695 -0.011258 0.0064126 -0.010901 -0.0065917 0.011174 -0.010099 
CUDA -0.0025384 -0.00075398 0.00087496 0.0010205 -0.00010656 -0.00013383 -0.0004831 -0.00023777 -0.00044607 -0.0030748 -0.0066152 0.0017567 0.0020411 0.00064796 -0.0010722 -0.0035833 -0.0034147 0.00090468 0.00096634 -0.00045005 -0.0060933 0.0026202 -0.001365 0.00016041 -0.0011983 0.0022795 0.00066246 0.00028472 0.0019582 -0.0027914 -0.0028886 -0.0027944 -0.0030023 0.0015355 -0.001429 0.001748 -0.00087599 -0.0057208 0.0038365 -0.007147 -0.00024031 0.0011099 -0.0017369 0.0024193 0.0033149 -0.00035617 0.0013879 0.0030746 -2.8597e-05 -0.0030684 -0.0073142 0.00093377 0.0058617 -0.0024514 -0.0050395 -0.0033997 0.002515 -0.0035046 0.0015128 -0.0026029 -0.0056191 -0.0039951 0.0024588 -0.0028338 -0.0014079 0.0020184 -0.0015629 -0.001825 -0.004255 -0.0024171 -0.0035119 -0.00084267 0.0032564 6.9878e-05 0.0022453 -0.0036205 -0.0013334 0.0018281 0.0016449 -0.004031 -0.0011359 0.00056473 -7.2405e-05 0.0033688 0.00078786 0.00026613 0.00073285 -0.0019561 -0.0041717 -0.0014951 -0.00012515 -0.00083908 -0.0037604 -0.0020561 0.0020736 0.0018846 0.002131 0.00034308 -0.0025007 -0.00096624 
packages 0.011922 0.003361 -0.0010211 -0.0095968 0.0047328 0.00018031 0.003073 0.0012761 -0.00443 -0.00051446 -0.0085608 -0.0032871 0.00042768 -0.0042448 -0.0024927 -0.0030351 -0.0093501 -0.0041297 0.00042198 0.0046347 -0.00022091 -0.0022367 -0.0043611 0.0052914 -0.015056 0.0021948 -0.0082089 -0.0022293 0.0013279 -0.0085638 -0.0022987 -0.00020945 0.0065889 -0.0019723 0.012005 -0.0019081 0.0016105 0.010083 -0.0028398 0.0030509 -0.0047481 -0.0041682 0.0051931 -0.0015952 0.001924 0.0018827 -0.00041911 0.0033552 -0.0041512 0.0017999 0.0061238 0.00095983 -0.0020473 -0.0011856 -0.0019284 0.0074403 0.00085087 0.0039219 0.0047351 0.00054383 0.0038668 -0.00048339 -0.0024775 0.0028159 -0.0033826 0.00085593 0.0095201 -0.0019568 0.001292 0.0046912 0.0046685 -0.0089207 0.0071593 0.0020608 -0.0062632 0.0043446 -0.0066604 -0.0087921 0.002098 -0.0038332 -0.0017368 -0.001644 0.0065002 5.0126e-05 0.0017125 0.0033844 -0.00094169 0.0092841 0.0020477 -0.0012134 -0.0042996 0.00094637 0.00030603 0.0024267 -0.0004841 0.0029058 -0.0064919 -0.0042167 -0.0059994 -0.0041008 
gcc 0.0051492 -0.019992 -0.001651 0.009607 -0.0084702 0.003301 -0.018071 -0.010576 0.0038022 -0.023525 -0.019994 0.011159 -0.0075441 0.0093638 -0.00075625 0.0054799 -0.0069885 -0.0069806 0.0032042 -0.0084653 -0.011341 0.0025072 -0.002329 0.0060449 0.009235 0.0045935 0.0060844 -0.0053081 0.0036511 -0.0023568 -0.0023384 -0.0019913 -0.0037346 0.0056787 -0.0058274 0.0063756 -0.0067405 -0.012324 0.013201 -0.010126 0.00084302 0.0039422 -0.0031618 0.0055322 0.025585 -0.0034653 0.010204 0.016735 0.0079355 -0.003087 -0.011771 -0.0022824 0.0088125 -0.0088119 -0.0077067 -0.0095309 -0.0086572 0.0028494 0.0028949 -0.010886 -0.012667 -0.00020211 0.0015703 -0.016716 0.0067596 0.0013699 -0.004421 0.0052316 -0.019957 -0.0048698 0.0031178 -0.001677 0.0060992 -0.0093073 0.0053484 -0.00705 0.0044635 0.0034068 -0.0043132 -0.0087679 -0.00087379 0.015236 -0.014179 0.011221 0.01143 -0.0035944 -0.0021248 -0.012349 -0.0080262 -0.010695 -0.0093991 -0.0038895 -0.010234 -0.011221 0.0061498 0.0063057 0.0054565 0.00083617 -0.0087179 -0.00038004 
```bash 0.0011273 -0.0012901 0.00082351 -0.00079445 0.00047966 0.00031874 0.0027473 0.0024693 -0.0018554 -0.0014952 0.0012415 -0.00058244 0.0011341 0.0025622 -0.0020378 -0.001427 -0.00071093 0.00029585 -0.0014734 0.00015032 0.00093367 -0.0011033 0.0016347 -0.00071412 -0.00075637 -0.0024563 0.001424 0.0022505 0.00079727 -0.0002158 0.0012456 -0.00022357 -0.0013283 0.0018298 0.0011253 0.00057535 0.00050606 -0.00081215 -0.00041622 -0.00020775 0.0014077 -0.0020609 -0.00022127 0.0017684 0.00058381 0.00064891 -0.00053214 -0.0012265 0.0012163 -0.0017078 -0.00089964 0.0013787 -0.00040629 -0.00017451 0.0011832 0.0014212 0.0018164 -0.0014018 -0.00094667 -7.6173e-05 -0.00075586 -0.00071269 9.4188e-06 0.0025974 0.00036898 -0.0012199 0.0017196 -0.0015795 -0.00022385 -0.00094747 0.0023839 0.0021582 0.0012841 0.0015011 -0.0010619 -0.00070089 0.00036719 0.0015236 6.1011e-05 0.0011211 0.0014487 0.0016414 -0.0013293 -0.00075296 -0.0034685 -9.261e-05 -0.00077241 0.00040657 -0.0024832 0.00073152 -0.0026181 0.00021284 0.0010477 -0.0014694 0.0015547 5.226e-05 0.0020321 0.00027883 0.00056335 -0.0025051 
